tree
version=v4
num_class=1
num_tree_per_iteration=1
label_index=0
max_feature_idx=45
objective=regression
feature_names=Product_Name Brand Category Region Channel Week_Num Promotion_Flag Is_New_Launch Lifecycle_Stage Usage_Frequency Price_USD Rating Skin_Type Gender_Target Cruelty_Free Country_of_Origin Week_Index Usage_Frequency_Encoded Lifecycle_Stage_Encoded Demand_Cluster Promo_Lift Month Quarter Lag_1w Lag_2w Lag_4w RollingMean_4w RollingStd_4w Lag_Diff_1w Price_Promo_Interaction Is_Holiday_Season Is_MidYear_Lift Time_Since_Launch Avg_Demand_By_Category Avg_Demand_By_Brand Units_Sold_Rank_Per_Product_Cat Units_Sold_Rank_Per_Product_Brand Brand_FE Category_FE Name_FE Month_sin Month_cos Week_sin Week_cos Quarter_sin Quarter_cos
feature_infos=-1:4:14:21:22:28:30:36:0:1:2:3:5:6:7:8:9:10:11:12:13:15:16:17:18:19:20:23:24:25:26:27:29:31:32:33:34:35:37:38:39:40:41 -1:14:29:2:10:24:1:3:6:11:15:18:20:22:0:4:5:7:8:9:12:13:16:17:19:21:23:25:26:27:28 -1:3:11:0:2:4:9:14:18:19:20:5:7:8:10:13:15:17:1:6:12:16 -1:0:1:2 -1:0:1 [1:52] [0:1] [0:1] -1:0:3:1:2 -1:1:3:0:2 [12.73:149.44] [1.1000000000000001:5] -1:0:4:2:3:1 -1:0:1:2 [0:1] -1:1:3:0:2:5:7:6:4 [0:92] [0:3] [0:3] [0:3] [1.0314372318230129:1.5947807176513231] [1:12] [1:4] [10:790] [10:790] [10:790] [12.25:686] [0:212.88709840351214] [-457:221] [0:149.44] [0:1] [0:1] [0:644] [15.795698924731182:437.48207885304657] [15.795698924731182:233.72849462365591] [1:216] [1:216] [0.02:0.080000000000000002] [0.02:0.080000000000000002] [0.02:0.059999999999999998] [-1:1] [-1:1] [-1:1] [-1:1] [-1:1] [-1:1]
tree_sizes=5323 5658 5651 5659 5700 5679 5716 5709 5688 5722 5729 5736 5718 5716 5717 5761 5757 5760 5766 5752 5757 5763 5785 5801 5780 5799 5836 5825 5822 5823 5851 5820 5857 5824 5829 5794 5854 5824 5853 5869 5855 5894 5824 5846 5873 5839 5862 5879 5845 5787 5808 5896 5778 5895 5881 5806 5813 5272 5826 5876 5047 5915 5890 5883 5894 5902 5839 5875 5874 5867 5862 4380 4802 5914 5873 5435 5414 5899 5889 5883 5888 5940 4903 5938 5882 5700 5847 5914 5883 5867 5877 5922 3979 5916 5861 5428 5856 5902 5916 5907 5917 5800 5911 5917 5905 4475 5435

Tree=0
num_leaves=63
num_cat=0
split_feature=26 26 26 26 26 26 26 26 26 26 26 36 26 36 26 26 26 26 26 36 26 36 36 35 35 36 26 27 35 36 27 36 35 26 35 27 35 27 26 26 26 36 36 35 36 36 27 27 5 36 27 35 27 27 26 35 35 27 27 26 26 10
split_gain=5376.77 1518.36 597.667 368.758 184.553 135.833 58.6959 52.3541 45.3656 32.7859 16.7269 9.87947 8.68396 8.09016 5.4123 5.31678 5.31311 5.10159 3.70943 3.67626 3.65662 2.93887 2.7244 2.67167 2.23823 2.03584 1.95885 1.84437 1.78439 1.75848 1.71979 1.66286 1.63503 1.58568 1.4929 1.47647 1.38257 1.28085 1.16086 1.08877 1.08351 1.06429 0.846148 0.845412 0.787674 0.769376 0.762044 0.713301 0.649806 0.57378 0.425931 0.424527 0.369052 0.366172 0.355764 0.334332 0.315431 0.307509 0.239006 0.233914 0.216976 0.205482
threshold=54.375000000000007 135.41666666666671 33.375000000000007 83.375000000000014 303.00000000000006 21.291666666666668 181.62500000000003 105.62500000000001 67.375000000000014 42.583333333333336 26.125000000000004 20.500000000000004 17.375000000000004 24.500000000000004 76.875000000000014 116.87500000000001 61.291666666666679 48.875000000000007 36.125000000000007 79.500000000000014 94.375000000000014 8.5000000000000018 10.500000000000002 12.500000000000002 17.500000000000004 14.500000000000002 94.875000000000014 15.393450928939574 84.500000000000014 11.500000000000002 20.255657619756885 8.5000000000000018 13.500000000000002 219.12500000000003 81.500000000000014 17.095320997278773 86.500000000000014 14.826776512234234 23.875000000000004 28.583333333333339 165.87500000000003 4.5000000000000009 28.500000000000004 88.500000000000014 12.500000000000002 3.5000000000000004 8.8694231304333915 7.8049129826454022 5.5000000000000009 4.5000000000000009 8.0570879768478854 86.500000000000014 7.8049129826454022 4.0824829046386304 52.375000000000007 63.500000000000007 67.500000000000014 6.4807406984078524 17.095320997278773 39.625000000000007 391.00000000000006 129.56000000000003
decision_type=2 2 2 2 2 2 2 2 2 2 2 2 2 2 2 2 2 2 2 2 2 2 2 2 2 2 2 2 2 2 2 2 2 2 2 2 2 2 2 2 2 2 2 2 2 2 2 2 2 2 2 2 2 2 2 2 2 2 2 2 2 2
left_child=2 3 5 8 6 12 23 11 16 18 38 26 -1 33 21 22 32 29 48 39 27 57 58 -3 -17 52 45 -13 -23 -11 -24 53 50 -8 41 -26 -27 -22 -7 -12 -25 -16 -20 -31 -34 -5 -36 54 -4 -28 -2 -49 -18 -19 -33 -41 -40 -10 -9 -44 -6 -45
right_child=1 4 9 7 60 10 13 15 14 17 19 20 -14 -15 34 24 25 31 42 -21 37 28 30 40 35 36 49 -29 -30 43 -32 47 44 -35 46 -37 -38 -39 56 55 -42 -43 59 61 -46 -47 -48 51 -50 -51 -52 -53 -54 -55 -56 -57 -58 -59 -60 -61 -62 -63
leaf_value=4.0308263794003967 4.1635416120416089 4.2591800113805824 4.0917657332512212 4.217892828591097 4.3345709786157558 4.0659355195190461 4.2880984953524184 4.2268579445356416 4.1826512712763835 4.1457957754369232 4.0872514677878087 4.1963230172728219 4.0489297050526316 4.2782958428046749 4.2043409284842479 4.2389873896324408 4.1710094069297083 4.1480937471630641 4.1278624156708688 4.081408951004482 4.2070574877931586 4.177669822289384 4.2184464595573408 4.2405553983141466 4.2309422464399296 4.1666238497755899 4.2257263073888307 4.1835972926029878 4.1677721817254074 4.137086174887167 4.2024329680820305 4.1429993344591693 4.1637800121046231 4.3040701077014987 4.1851907026499644 4.2198378270492753 4.1575831603236058 4.1964072290452785 4.0835380100392094 4.1020073355113986 4.2582593877817168 4.1885159988940455 4.1141671731646721 4.1274392703706004 4.1545244757545445 4.2049838121429186 4.1706317044958263 4.1429480751993726 4.1075099836520108 4.2146231954395788 4.1765195019770074 4.1308324513442072 4.1797027659340422 4.1604101968698961 4.1487396884563479 4.0935014953758637 4.0728355136033638 4.1941211344414953 4.2406984192026131 4.1204010852848567 4.3582283843929055 4.1333750349748142
leaf_weight=620 68 211 55 65 86 450 218 109 38 109 317 860 632 470 47 275 99 35 110 572 484 897 567 334 451 624 85 137 229 230 88 341 102 320 76 224 231 169 123 176 63 655 258 317 985 379 69 68 167 317 39 69 99 78 187 311 518 100 50 229 277 138
leaf_count=620 68 211 55 65 86 450 218 109 38 109 317 860 632 470 47 275 99 35 110 572 484 897 567 334 451 624 85 137 229 230 88 341 102 320 76 224 231 169 123 176 63 655 258 317 985 379 69 68 167 317 39 69 99 78 187 311 518 100 50 229 277 138
internal_value=4.16653 4.2096 4.09182 4.19146 4.28857 4.06675 4.27397 4.21238 4.171 4.13085 4.08044 4.20303 4.03986 4.28885 4.18153 4.22557 4.16111 4.13933 4.11462 4.08796 4.19848 4.17737 4.21942 4.24914 4.23079 4.16629 4.21185 4.19459 4.17566 4.13367 4.21635 4.14514 4.15655 4.29784 4.18771 4.22734 4.16417 4.20435 4.07103 4.09272 4.24359 4.18963 4.11893 4.13178 4.15539 4.20699 4.17834 4.14323 4.10329 4.21711 4.16833 4.13664 4.1754 4.15647 4.145 4.09644 4.07476 4.19111 4.23165 4.117 4.3531 4.12916
internal_weight=16707 10597 6110 8618 1979 3719 1616 4260 4358 2391 2467 2496 1252 1008 2111 1764 2247 1572 819 1376 1650 1264 814 608 950 1053 846 997 1126 794 655 778 1194 538 847 675 855 653 1091 804 397 702 597 685 1087 444 145 665 222 402 107 137 198 113 528 487 641 138 159 487 363 455
internal_count=16707 10597 6110 8618 1979 3719 1616 4260 4358 2391 2467 2496 1252 1008 2111 1764 2247 1572 819 1376 1650 1264 814 608 950 1053 846 997 1126 794 655 778 1194 538 847 675 855 653 1091 804 397 702 597 685 1087 444 145 665 222 402 107 137 198 113 528 487 641 138 159 487 363 455
is_linear=0
shrinkage=1


Tree=1
num_leaves=63
num_cat=0
split_feature=26 26 26 26 26 26 26 26 26 26 26 26 36 35 26 26 35 26 26 26 26 36 34 36 36 36 36 27 36 36 35 27 35 35 26 35 27 27 26 36 35 26 26 26 36 34 35 27 26 35 36 36 27 27 27 27 27 35 35 27 26 35
split_gain=4340.36 1256.69 466.709 314.532 143.571 104.934 49.2782 42.6593 34.7846 32.1163 9.17893 8.93879 6.47485 6.34264 6.21935 5.28984 4.70515 4.63579 4.12403 3.36252 2.38188 2.36868 2.34923 2.30562 2.15656 2.1474 2.0386 2.06997 1.96761 1.70042 1.57372 1.56828 1.40041 1.39107 1.34112 1.30982 1.29385 1.26425 0.896221 0.878203 0.87178 0.862398 0.811798 0.783381 0.695053 0.656804 0.587781 0.585218 0.534034 0.523373 0.475303 0.466312 0.465067 0.441879 0.412404 0.368316 0.311918 0.30792 0.291367 0.166782 0.165777 0.153592
threshold=53.291666666666679 136.58333333333334 31.875000000000004 85.875000000000014 303.00000000000006 21.875000000000004 67.375000000000014 181.62500000000003 106.87500000000001 41.875000000000007 26.875000000000004 17.875000000000004 19.500000000000004 27.500000000000004 75.875000000000014 60.875000000000007 10.500000000000002 36.125000000000007 46.375000000000007 120.37500000000001 232.37500000000003 12.500000000000002 101.72491039426525 80.500000000000014 9.5000000000000018 44.500000000000007 6.5000000000000009 17.914147109663549 9.5000000000000018 119.50000000000001 13.500000000000002 11.29527924990496 8.5000000000000018 91.500000000000014 24.875000000000004 81.500000000000014 21.52808223936475 18.192260223015342 156.12500000000003 18.500000000000004 137.50000000000003 15.375000000000002 94.375000000000014 57.291666666666679 6.5000000000000009 55.734169653524496 56.500000000000007 21.52808223936475 407.37500000000006 60.500000000000007 2.5000000000000004 32.500000000000007 7.7540270202724271 10.6203404857952 9.2870878105033743 9.8994949366116725 10.246950765959598 89.500000000000014 59.500000000000007 22.446224376332303 50.875000000000007 77.500000000000014
decision_type=2 2 2 2 2 2 2 2 2 2 2 2 2 2 2 2 2 2 2 2 2 2 2 2 2 2 2 2 2 2 2 2 2 2 2 2 2 2 2 2 2 2 2 2 2 2 2 2 2 2 2 2 2 2 2 2 2 2 2 2 2 2
left_child=2 3 5 6 7 11 15 32 12 17 34 41 31 20 24 30 47 46 39 37 -9 50 25 49 53 -14 56 -28 55 -24 54 42 -3 -30 -7 -26 -21 -18 -34 -11 45 -1 -5 -32 -33 -23 -4 -10 -6 -12 -20 -19 -48 -8 -2 -17 -16 -41 -36 -40 -52 -25
right_child=1 4 9 8 48 10 14 13 16 18 23 -13 22 -15 26 28 19 51 21 36 -22 40 29 61 35 -27 27 -29 33 -31 43 44 38 -35 58 -37 -38 -39 59 57 -42 -43 -44 -45 -46 -47 52 -49 -50 -51 60 -53 -54 -55 -56 -57 -58 -59 -60 -61 -62 -63
leaf_value=-0.12822660888273885 -0.0025657648834934896 0.085995635089948202 -0.047226580525889544 0.034511331235015742 0.15418499389599111 -0.087063031288006687 0.016436635102305946 0.11080510010668164 0.062941660426786825 -0.024948220162724074 -0.059266492248286867 -0.10332174850334913 0.031566050234206493 0.099766966715162886 0.025901387479840495 0.0076056379457826121 0.049488632755326528 -0.036449332211328588 -0.00089068552616107109 0.060364909133603498 0.12674233504704066 -0.025291185891952644 0.039607305469618381 -0.062753181573417458 0.01001105427003327 0.021278991901268394 0.019724106157010653 0.0022083836384372761 0.00030279045337233988 0.019456211747784242 -0.013388788709125419 0.054836527674513705 0.067785643679755078 -0.0088865910638666265 -0.067550920064632716 0.0012106531435734334 0.047789146562078694 0.038706732115328865 0.085582794674805229 -0.028547492949815279 -0.032010808643948944 -0.11635821970933512 0.043405065191797466 -0.0080462704424218642 0.043274878472503692 -0.018814514719678876 -0.058120568735258921 0.077259984752163294 0.17488111933883355 -0.068042974036817125 -0.016475226532978317 -0.044979480803195915 -0.073688225218882936 0.028389838510858162 0.0098989050785029259 0.019079607081684199 0.038341080053846857 -0.036305637505717123 -0.080136588891268248 0.0689732841650645 -0.0092614256181318688 -0.077793084592981787
leaf_weight=253 93 128 65 238 115 638 86 372 226 129 168 635 736 407 48 84 608 114 33 464 244 440 406 35 758 294 1139 72 822 50 550 135 286 205 64 218 131 161 83 88 130 466 248 562 143 273 272 63 244 466 104 406 38 55 36 43 60 357 502 44 53 351
leaf_count=253 93 128 65 238 115 638 86 372 226 129 168 635 736 407 48 84 608 114 33 464 244 440 406 35 758 294 1139 72 822 50 550 135 286 205 64 218 131 161 83 88 130 466 248 562 143 273 272 63 244 466 104 406 38 55 36 43 60 357 502 44 53 351
internal_value=-5.67749e-05 0.0384067 -0.0674705 0.0222872 0.111569 -0.0906367 0.00522772 0.0983564 0.0433962 -0.0343187 -0.0771987 -0.112636 0.0352729 0.110437 0.0152392 -0.00495728 0.0544252 -0.0495045 -0.0258356 0.0518585 0.117313 -0.0220138 0.0313745 -0.0699651 0.00973465 0.0286532 0.0198899 0.0186854 -8.26487e-05 0.0374452 -0.00948647 0.0428045 0.0753518 -0.00153837 -0.0832637 0.00804864 0.057681 0.0472845 0.0718532 -0.0326633 -0.0242915 -0.120707 0.0391295 -0.0106984 0.0490658 -0.0228412 -0.0581322 0.0663186 0.168698 -0.0658143 -0.011834 -0.043183 -0.0602597 0.0212663 0.000962135 0.0116092 0.0331007 -0.0348389 -0.0788351 0.0804121 -0.014114 -0.076595
internal_weight=16737 10657 6080 8734 1923 3578 4831 1564 3903 2502 2224 1354 2250 1023 2436 2395 1653 895 1607 1364 616 1033 1486 1020 1117 1030 1319 1211 1154 456 1241 764 541 1027 1204 976 595 769 413 574 843 719 486 1112 278 713 375 289 359 634 190 520 310 141 129 127 108 445 566 127 157 386
internal_count=16737 10657 6080 8734 1923 3578 4831 1564 3903 2502 2224 1354 2250 1023 2436 2395 1653 895 1607 1364 616 1033 1486 1020 1117 1030 1319 1211 1154 456 1241 764 541 1027 1204 976 595 769 413 574 843 719 486 1112 278 713 375 289 359 634 190 520 310 141 129 127 108 445 566 127 157 386
is_linear=0
shrinkage=0.1


Tree=2
num_leaves=63
num_cat=0
split_feature=26 26 26 26 26 26 26 26 26 26 26 26 35 35 26 26 35 26 26 35 36 26 27 36 34 27 26 36 35 36 36 36 36 26 27 26 35 26 6 33 35 27 35 26 36 35 5 36 36 35 17 27 26 26 27 36 24 27 36 27 35 26
split_gain=3546.04 971.058 458.935 244.177 95.2931 92.4394 38.2653 29.0569 27.0434 17.696 9.16359 9.12675 6.66523 5.0333 4.35997 4.14135 4.0384 3.85036 3.29664 3.1368 2.80432 2.67141 2.44423 1.85884 1.76583 1.636 1.61818 1.47448 1.43515 1.39599 1.36238 1.27436 1.24886 1.11341 1.10589 1.10338 1.09284 0.924829 0.863019 0.848614 0.758667 0.710207 0.704292 0.627253 0.620319 0.586821 0.56622 0.544084 0.517526 0.500812 0.500444 0.489361 0.48733 0.486892 0.464703 0.394095 0.387855 0.367927 0.367819 0.334703 0.279422 0.295262
threshold=56.375000000000007 146.37500000000003 33.375000000000007 85.875000000000014 303.00000000000006 22.375000000000004 111.12500000000001 70.875000000000014 43.375000000000007 192.87500000000003 18.375000000000004 26.875000000000004 19.500000000000004 19.500000000000004 49.375000000000007 63.875000000000007 10.500000000000002 97.625000000000014 38.125000000000007 28.500000000000004 67.500000000000014 125.87500000000001 13.14026889628469 19.500000000000004 55.734169653524496 19.134392839356803 79.375000000000014 21.500000000000004 4.5000000000000009 35.500000000000007 9.5000000000000018 18.500000000000004 7.5000000000000009 16.375000000000004 7.3936222762589727 165.87500000000003 84.500000000000014 95.291666666666671 1.0000000180025095e-35 57.052120669056158 84.500000000000014 11.146748404803995 79.500000000000014 243.62500000000003 19.500000000000004 14.500000000000002 9.5000000000000018 19.500000000000004 41.500000000000007 86.500000000000014 1.5000000000000002 8.0570879768478854 122.12500000000001 53.875000000000007 19.134392839356803 3.5000000000000004 32.500000000000007 7.0887234393789118 34.500000000000007 5.4772255750516674 29.500000000000004 391.00000000000006
decision_type=2 2 2 2 2 2 2 2 2 2 2 2 2 2 2 2 2 2 2 2 2 2 2 2 2 2 2 2 2 2 2 2 2 2 2 2 2 2 2 2 2 2 2 2 2 2 2 2 2 2 2 2 2 2 2 2 2 2 2 2 2 2
left_child=2 3 5 7 9 10 12 15 18 35 33 42 28 43 31 23 52 29 46 39 38 47 26 51 -25 -19 -21 -24 54 -14 -17 55 57 -1 53 58 -32 -30 -13 45 -36 -41 -7 -11 -20 -9 56 -18 -15 -33 -23 -2 -8 -34 -5 -10 -4 -16 -3 -58 61 -6
right_child=1 4 8 6 60 11 16 19 14 13 -12 20 17 48 32 30 21 25 44 22 -22 50 27 24 -26 -27 -28 -29 37 -31 36 49 34 -35 40 -37 -38 -39 -40 41 -42 -43 -44 -45 -46 -47 -48 -49 -50 -51 -52 -53 -54 -55 -56 -57 59 -59 -60 -61 -62 -63
leaf_value=-0.11260656225126844 -0.00047568033984170689 0.072956627851012368 -0.040992398420348769 0.044730838616283575 0.13140987157821657 -0.069411741653964312 0.057107746336195211 0.020758786463291847 -0.0073849783686455346 0.1052632032800786 -0.09102280212963583 -0.057573230342136177 0.029537446369332351 0.096770207534862485 -0.0098435357086739308 0.013039844665662759 0.051271036034449935 0.036674209429572023 -0.026990310585760808 0.011845573508897081 -0.066030368750338797 0.057936385430989362 0.023570384499016068 -0.021565132103350065 -0.005426635541693133 0.023259523154887482 0.019488808989629815 3.1556188197875463e-05 0.033244997787020975 0.022230175546364719 0.0043953182835219946 -0.023209192212216737 -0.016723879705309933 -0.1018569820511768 -0.017495166888136581 0.082463027266731048 -0.0033118785725906492 0.041898588823945558 -0.044772570822821108 0.022097896230220796 -0.030217281703868611 0.032539507583009476 -0.076641518338439407 0.11954547478602483 -0.036905913269023649 0.0083246974718003044 -0.044448890537023548 0.043968607611083371 0.085173080703045467 -0.029724007192305835 0.048589620409441779 0.0080826708443928526 0.067982142705183768 -0.011294741357846017 0.059140757850880889 -0.020011363171385257 -0.048883784934878355 0.0023557319205665833 0.059412172390864451 -0.065535110607743266 0.14071044201074645 0.16255448768013403
leaf_weight=429 201 158 31 97 33 348 134 106 31 290 660 421 527 394 58 136 191 719 90 701 665 388 30 72 984 112 467 188 235 568 697 204 462 362 114 170 249 364 85 249 88 98 775 129 451 62 278 538 140 402 121 99 168 274 52 162 47 42 64 47 128 189
leaf_count=429 201 158 31 97 33 348 134 106 31 290 660 421 527 394 58 136 191 719 90 701 665 388 30 72 984 112 467 188 235 568 697 204 462 362 114 170 249 364 85 249 88 98 775 129 451 62 278 538 140 402 121 99 168 274 52 162 47 42 64 47 128 189
internal_value=6.58451e-06 0.0366963 -0.0576053 0.0229864 0.105822 -0.0804544 0.0401286 0.00633264 -0.0268179 0.0935878 -0.100249 -0.0678959 0.032873 0.101055 -0.0197306 -0.000894174 0.0526975 0.0297242 -0.0405743 0.0155965 -0.061538 0.0500471 0.0131024 -0.00457429 -0.00654635 0.0348963 0.0149156 0.00336368 0.0409304 0.0257707 0.00371784 -0.0252935 -0.0154283 -0.107822 -0.0165607 0.0752241 0.00236532 0.0385647 -0.0555155 0.0222704 -0.023159 0.0251319 -0.0744649 0.109935 -0.0353092 0.0162464 -0.0475374 0.0459495 0.0938946 -0.0275728 0.0558141 0.00236605 0.0633615 -0.0147208 0.0501205 -0.0180318 -0.0539989 -0.00474725 0.0693359 -0.0578117 0.152436 0.158535
internal_weight=16774 10248 6526 8553 1695 3745 4214 4339 2781 1345 1451 2294 2674 953 1837 2438 1540 1926 944 1901 1171 1238 1386 1356 1056 831 1168 218 748 1095 1082 799 1038 791 938 392 946 599 506 515 202 347 1123 419 541 168 403 729 534 606 509 300 302 736 149 193 125 100 222 94 350 222
internal_count=16774 10248 6526 8553 1695 3745 4214 4339 2781 1345 1451 2294 2674 953 1837 2438 1540 1926 944 1901 1171 1238 1386 1356 1056 831 1168 218 748 1095 1082 799 1038 791 938 392 946 599 506 515 202 347 1123 419 541 168 403 729 534 606 509 300 302 736 149 193 125 100 222 94 350 222
is_linear=0
shrinkage=0.1


Tree=3
num_leaves=63
num_cat=0
split_feature=26 26 26 26 26 26 26 26 26 26 26 35 36 26 34 26 26 36 26 36 36 36 35 35 35 26 27 35 27 27 33 36 26 27 26 35 27 26 26 35 35 26 26 36 35 27 27 36 36 36 27 35 36 5 27 38 26 34 26 35 29 27
split_gain=2853.73 791.794 356.092 195.387 83.4407 65.492 35.1059 28.2512 19.3785 18.5106 8.78587 5.36124 4.76941 4.14802 4.08492 4.02058 3.97609 3.946 3.19599 2.53036 2.16307 2.05886 2.03594 1.51862 1.50066 1.49853 1.41332 1.40236 1.36318 1.29032 1.2768 1.26051 1.0902 1.08882 1.06012 1.04262 0.99387 0.891691 0.881253 0.812397 0.775827 0.7623 0.67598 0.662813 0.586414 0.574735 0.559534 0.499241 0.48538 0.479387 0.564021 0.456342 0.441882 0.423095 0.41797 0.398144 0.380323 0.37925 0.37404 0.367473 0.359086 0.350205
threshold=55.875000000000007 142.12500000000003 31.875000000000004 82.875000000000014 303.00000000000006 20.875000000000004 105.12500000000001 41.875000000000007 66.291666666666671 188.12500000000003 25.375000000000004 30.500000000000004 9.5000000000000018 49.375000000000007 117.13037634408603 74.375000000000014 16.375000000000004 24.500000000000004 36.125000000000007 80.500000000000014 29.500000000000004 34.500000000000007 86.500000000000014 6.5000000000000009 65.500000000000014 117.58333333333336 10.165300454651273 22.500000000000004 15.599145275730107 19.838934783232038 69.807123655913998 11.500000000000002 58.875000000000007 9.5742710775633917 225.62500000000003 17.500000000000004 17.914147109663549 97.625000000000014 368.12500000000006 19.500000000000004 9.5000000000000018 28.583333333333339 156.12500000000003 14.500000000000002 132.50000000000003 12.832251036613444 15.599145275730107 59.500000000000007 20.500000000000004 6.5000000000000009 7.5938571665963526 80.500000000000014 28.500000000000004 4.5000000000000009 5.686240703077317 0.070000000000000021 120.37500000000001 57.165845280764643 23.375000000000004 77.500000000000014 131.03500000000005 4.0824829046386304
decision_type=2 2 2 2 2 2 2 2 2 2 2 2 2 2 2 2 2 2 2 2 2 2 2 2 2 2 2 2 2 2 2 2 2 2 2 2 2 2 2 2 2 2 2 2 2 2 2 2 2 2 2 2 2 2 2 2 2 2 2 2 2 2
left_child=2 3 5 8 9 16 11 18 22 42 51 23 29 31 20 24 -1 34 47 41 -14 37 32 45 43 -16 48 46 -23 56 -25 54 -2 -26 -11 -15 -29 -13 -6 -40 -34 -12 53 -10 57 -5 -17 -4 -24 -37 -51 -7 -20 -3 -9 -28 -8 -33 -53 60 -18 -49
right_child=1 4 7 6 38 10 12 13 15 17 19 21 14 35 25 27 59 -19 52 -21 -22 28 26 30 33 -27 55 36 -30 -31 -32 44 40 -35 -36 49 -38 -39 39 -41 -42 -43 -44 -45 -46 -47 -48 61 -50 50 -52 58 -54 -55 -56 -57 -58 -59 -60 -61 -62 -63
leaf_value=-0.1013060848160488 -0.0056165939658383212 0.048167490493506195 -0.041651658838844467 0.033820875250187114 0.11498035123715034 -0.06652809079553261 0.046331084576936875 -0.019179520443265822 0.014298057424888128 0.090190764383752231 -0.057902955008404602 0.025018544380747992 0.0398267103297801 -0.0038422025424698671 0.040414853843195098 0.019537606406184387 -0.084629182318064169 0.082729216666618144 -0.027835157570307668 -0.063556096653143573 0.026783817999211014 0.021858427997505488 0.00062702862291997815 0.026462388027553154 0.005215301435118164 0.049073016165369535 -0.014629278247593903 0.013633566804635884 0.012133125030756078 0.064778415555447597 0.03458502206621291 -0.024542230580803716 0.0090200027746614071 -0.0054595237494808151 0.10255762805503583 -0.0059334697842132302 -0.0047628533001238061 0.034026275421633868 0.15011310780489887 0.13112853085253873 -0.00029442540481939791 -0.050601469928927383 0.069825751654767773 0.0073555543818883025 -0.028696115136566298 0.045853184372465189 0.033894366332713297 -0.04480099790501145 -0.0076744569822800096 -0.01430166386469351 -0.020986648774245744 -0.077452679238952965 -0.036425041251442511 0.062547777319091488 -0.0080033272970467806 -0.028784086435071882 0.056505279788876532 -0.018360864092843442 -0.069910283329395154 -0.090704132973655205 -0.065746020277341208 -0.055000361395898714
leaf_weight=409 385 47 145 96 51 304 155 80 195 257 419 429 394 92 349 216 253 468 91 629 203 731 89 436 305 655 71 814 185 112 394 394 99 138 262 55 30 164 134 176 845 376 206 481 283 106 33 105 334 623 166 285 453 173 61 30 100 157 363 483 32 128
leaf_count=409 385 47 145 96 51 304 155 80 195 257 419 429 394 92 349 216 253 468 91 629 203 731 89 436 305 655 71 814 185 112 394 394 99 138 262 55 30 164 134 176 845 376 206 481 283 106 33 105 334 623 166 285 453 173 61 30 100 157 363 483 32 128
internal_value=0.000368995 0.0328089 -0.0521942 0.0202209 0.0936029 -0.0732774 0.0345518 -0.0257361 0.00432006 0.0825256 -0.0636627 0.0267669 0.0445847 -0.0187831 0.0421551 0.0106374 -0.0926161 0.0901234 -0.0401115 -0.0585518 0.0354439 0.0229334 -0.00322288 0.0323447 0.006415 0.0461066 -0.00849548 0.0149504 0.0199096 0.0550398 0.0303552 -0.0233552 -0.00113916 0.00188515 0.096619 -0.0140006 0.0129748 0.0275628 0.136613 0.139791 0.000690917 -0.0545176 0.0647524 0.00937636 -0.0248442 0.0403296 0.0215683 -0.0472958 -0.00593045 -0.0151021 -0.0157329 -0.0712381 -0.0350418 0.0597075 -0.0144348 -0.0190747 0.0505261 -0.0228174 -0.0733418 -0.0878625 -0.0827463 -0.0506152
internal_weight=16734 10348 6386 8574 1774 3553 4509 2833 4065 1413 2376 2541 1968 1911 1601 2212 1177 987 922 1424 597 1509 1853 1032 1119 1004 524 1093 916 367 830 975 1329 443 519 936 844 593 361 310 944 795 426 676 834 202 249 378 423 844 789 952 544 220 141 101 255 551 648 768 285 233
internal_count=16734 10348 6386 8574 1774 3553 4509 2833 4065 1413 2376 2541 1968 1911 1601 2212 1177 987 922 1424 597 1509 1853 1032 1119 1004 524 1093 916 367 830 975 1329 443 519 936 844 593 361 310 944 795 426 676 834 202 249 378 423 844 789 952 544 220 141 101 255 551 648 768 285 233
is_linear=0
shrinkage=0.1


Tree=4
num_leaves=63
num_cat=1
split_feature=26 26 26 26 26 26 26 26 26 26 26 36 26 36 26 26 35 26 36 26 35 26 35 27 35 36 27 0 34 27 35 27 26 36 36 27 27 27 27 26 35 36 5 25 36 35 27 35 27 35 27 36 36 6 36 26 27 26 36 36 35 6
split_gain=2324.89 624.825 300.289 163.124 66.7908 55.2073 23.0275 22.905 21.1513 12.0871 7.51887 4.59862 3.40941 3.40814 3.36652 3.24226 2.79866 2.71121 2.44166 2.12008 2.11953 2.10073 1.9327 1.80648 1.59576 1.56316 1.18308 1.16586 1.1292 1.09253 1.08809 1.01608 0.973571 0.970046 0.816663 0.808513 0.762364 0.661276 0.64698 0.587189 0.554009 0.546162 0.539535 0.610405 0.522006 0.490693 0.473127 0.458418 0.482303 0.442535 0.404246 0.38328 0.357148 0.345638 0.344764 0.335023 0.313956 0.292585 0.291007 0.275918 0.260472 0.242637
threshold=56.375000000000007 146.37500000000003 31.875000000000004 87.291666666666671 303.00000000000006 20.875000000000004 109.58333333333336 42.583333333333336 69.875000000000014 196.12500000000003 25.625000000000004 11.500000000000002 16.375000000000004 4.5000000000000009 49.375000000000007 77.875000000000014 15.500000000000002 37.125000000000007 13.500000000000002 60.375000000000007 38.500000000000007 123.12500000000001 65.500000000000014 16.78168640092057 38.500000000000007 4.5000000000000009 14.056433876817197 0 91.487455197132633 21.52808223936475 28.500000000000004 12.832251036613444 165.87500000000003 18.500000000000004 88.500000000000014 13.856406460551021 7.9372539331937686 21.960191255997774 4.6904157598234368 22.875000000000004 91.500000000000014 14.500000000000002 5.5000000000000009 28.500000000000004 6.5000000000000009 77.500000000000014 15.195942440884226 86.500000000000014 5.686240703077317 158.50000000000003 5.5602757725374365 44.500000000000007 17.500000000000004 1.0000000180025095e-35 48.500000000000007 53.875000000000007 4.5460605656619562 97.125000000000014 6.5000000000000009 19.500000000000004 26.500000000000004 1.0000000180025095e-35
decision_type=2 2 2 2 2 2 2 2 2 2 2 2 2 2 2 2 2 2 2 2 2 2 2 2 2 2 2 1 2 2 2 2 2 2 2 2 2 2 2 2 2 2 2 2 2 2 2 2 2 2 2 2 2 2 2 2 2 2 2 2 2 2
left_child=2 3 5 8 9 12 11 17 18 32 39 35 52 46 33 25 -11 42 36 40 28 37 38 -22 44 -10 -26 -21 -13 -23 50 -27 41 56 54 57 -2 -15 -12 -7 -20 -3 43 -4 -17 -14 -8 -35 -49 55 -16 -18 -1 -44 -24 -32 -9 -5 -38 -19 -6 -41
right_child=1 4 7 6 60 10 13 14 15 16 22 20 45 21 30 24 51 59 19 27 23 29 34 -25 26 31 -28 -29 -30 -31 49 -33 -34 47 -36 -37 58 -39 -40 61 -42 -43 53 -45 -46 -47 -48 48 -50 -51 -52 -53 -54 -55 -56 -57 -58 -59 -60 -61 -62 -63
leaf_value=-0.082076626248879014 0.00200227018890541 0.062385929857983316 -0.038005794286727339 0.028311337502391051 0.12913266062736511 -0.068631607579613882 0.046984666636434656 -0.018280127657060864 0.024535588560433225 0.09067869790529802 -0.047868577443904964 0.026276987384803826 -0.074122421951586262 0.037923633546158457 -0.0092068240543626053 0.027795449130494022 0.078981541468121336 -0.022593472963362411 -0.0054450961599657229 -0.0052506726573737133 0.023579666158025134 0.04699492992655549 -0.059089237272739417 0.012455842281317178 0.014734971772396964 0.0089419547851012342 0.0031817413121461875 0.0015199607064981838 0.03479343970064764 0.037484534455375522 -0.014989666933799784 7.69053386475623e-05 0.066731333962895656 -0.018617380747177038 -0.058450997858328593 0.04181628652483399 0.014445162551699191 0.026930365925782348 -0.035405386459659523 -0.062649973495863376 -0.012130437092463163 0.050127312258001447 -0.040341690212396759 -0.057938239496687187 0.018916547350818293 -0.082240461986892083 0.06153127442972333 -0.022177118875044519 -0.029432924177255449 -0.02505920355518659 0.00040871317230072512 0.067653594305227091 -0.094532965559784965 -0.028889843942814099 -0.050550400198840384 -0.010593368225298556 -0.010209091881208205 0.035697173724876595 0.0061694760274674208 -0.031108845190961017 0.11492021437486014 -0.050186215445052751
leaf_weight=100 200 101 39 131 214 333 58 118 57 294 238 729 260 685 110 86 473 56 421 333 803 565 99 183 625 865 104 965 215 190 525 152 219 202 457 170 103 72 70 639 177 128 325 45 402 489 101 311 153 35 72 90 327 42 535 279 90 162 76 451 149 42
leaf_count=100 200 101 39 131 214 333 58 118 57 294 238 729 260 685 110 86 473 56 421 333 803 565 99 183 625 865 104 965 215 190 525 152 219 202 457 170 103 72 70 639 177 128 325 45 402 489 101 311 153 35 72 90 327 42 535 279 90 162 76 451 149 42
internal_value=0.000108836 0.0295831 -0.0470052 0.0187488 0.0855939 -0.0662524 0.0333191 -0.0227781 0.00577585 0.074927 -0.0575418 0.0270066 -0.0840615 0.0423376 -0.0163927 0.012556 0.0819859 -0.0353786 -0.00105448 -0.00251966 0.0248304 0.0408065 -0.0526635 0.0215298 0.0160917 0.0085382 0.0130934 -0.00024846 0.0282514 0.0446543 -0.0124706 0.00761837 0.061271 -0.020955 -0.0547385 0.036005 0.00626264 0.0369149 -0.0451598 -0.0642137 -0.00744082 0.0557817 -0.0411041 -0.0492399 0.0205349 -0.079525 0.0565518 -0.0228355 -0.0246278 -0.0139915 -0.00542143 0.0772938 -0.0918144 -0.0391132 -0.0519747 -0.0134791 -0.0148534 0.0325025 0.0109853 -0.0302146 0.123631 -0.061956
internal_weight=16740 10298 6442 8630 1668 3589 4064 2853 4566 1305 2413 2393 1176 1671 1895 2291 857 958 2275 1896 1930 1512 1399 986 1217 1074 729 1298 944 755 1021 1017 448 874 1091 463 379 757 308 1014 598 229 451 84 488 749 159 666 464 839 182 563 427 367 634 804 208 293 179 507 363 681
internal_count=16740 10298 6442 8630 1668 3589 4064 2853 4566 1305 2413 2393 1176 1671 1895 2291 857 958 2275 1896 1930 1512 1399 986 1217 1074 729 1298 944 755 1021 1017 448 874 1091 463 379 757 308 1014 598 229 451 84 488 749 159 666 464 839 182 563 427 367 634 804 208 293 179 507 363 681
cat_boundaries=0 2
cat_threshold=704651266 513
is_linear=0
shrinkage=0.1


Tree=5
num_leaves=63
num_cat=1
split_feature=26 26 26 26 26 26 26 26 26 26 26 36 26 26 36 35 26 36 0 34 34 26 36 36 26 10 35 36 36 36 36 36 34 27 35 6 10 36 27 36 36 27 36 36 34 36 35 34 36 26 36 26 27 36 35 35 27 27 5 35 35 27
split_gain=1839.62 485.986 279.023 117.66 51.9269 51.318 16.7411 15.6008 14.0278 9.56726 8.64407 3.32002 2.98811 2.75156 2.61176 2.5187 2.30775 2.18532 2.67547 2.03688 1.87607 1.85514 1.70053 1.67042 1.60437 1.54294 1.33272 1.13174 1.04928 1.04071 1.00823 1.00187 1.3073 0.910217 0.882363 0.869195 0.834521 0.81325 0.806975 0.749966 0.740037 0.728115 0.679917 0.660997 0.701253 0.640925 0.613678 0.594957 0.584659 0.555991 0.464451 0.436343 0.426486 0.421811 0.414036 0.40186 0.39875 0.380483 0.378222 0.370179 0.368367 0.350418
threshold=58.291666666666679 146.37500000000003 35.125000000000007 88.875000000000014 20.875000000000004 282.62500000000006 73.375000000000014 111.87500000000001 45.291666666666679 192.87500000000003 27.375000000000004 15.500000000000002 18.375000000000004 64.875000000000014 17.500000000000004 14.500000000000002 52.375000000000007 18.500000000000004 0 101.72491039426525 117.13037634408603 39.625000000000007 64.500000000000014 39.500000000000007 24.375000000000004 19.860000000000003 72.500000000000014 107.50000000000001 19.500000000000004 17.500000000000004 138.50000000000003 20.500000000000004 55.734169653524496 10.078855755160577 15.500000000000002 1.0000000180025095e-35 135.19000000000003 32.500000000000007 10.801234497346444 4.5000000000000009 88.500000000000014 13.004777530443196 8.5000000000000018 6.5000000000000009 55.734169653524496 3.5000000000000004 118.50000000000001 52.594086021505383 25.500000000000004 165.87500000000003 92.500000000000014 128.12500000000003 6.055300708194987 75.500000000000014 160.50000000000003 9.5000000000000018 30.95089740477405 13.14026889628469 4.5000000000000009 35.500000000000007 132.50000000000003 6.2915286960589638
decision_type=2 2 2 2 2 2 2 2 2 2 2 2 2 2 2 2 2 2 1 2 2 2 2 2 2 2 2 2 2 2 2 2 2 2 2 2 2 2 2 2 2 2 2 2 2 2 2 2 2 2 2 2 2 2 2 2 2 2 2 2 2 2
left_child=2 3 4 6 12 9 13 11 21 49 24 39 29 31 45 56 28 41 30 23 37 58 35 -13 -6 34 42 -21 52 -1 -19 -2 -33 -20 -7 -12 -31 -16 -28 57 -22 -8 -15 -18 48 -9 -23 61 -45 55 -49 -47 -10 -46 -24 -3 -11 -5 -4 -17 -26 -30
right_child=1 5 8 7 10 25 17 14 16 15 22 19 -14 26 20 59 43 18 33 27 40 46 54 -25 60 -27 38 -29 47 36 -32 32 -34 -35 -36 -37 -38 -39 -40 -41 -42 -43 -44 44 53 51 -48 50 -50 -51 -52 -53 -54 -55 -56 -57 -58 -59 -60 -61 -62 -63
leaf_value=-0.07139402546665885 0.0026005520718172196 0.058902390528533424 -0.04023968765481574 0.030852305358403349 -0.05910697140331779 0.12395592395541738 0.017008427388975966 0.0527574296852555 -0.012916086451150478 0.076935055269997499 -0.04086105303055998 0.022974183640513204 -0.067408313680419607 0.013098111370258701 0.031342716815087622 0.071943199571974953 0.00042736229331543052 0.015342689468956323 0.0088118337775457047 0.029230263000918612 0.038898638779841288 -0.019474206134233805 -0.046228864085405393 0.01418625417620969 -0.050250421956326202 0.089786817366257321 0.0020060977571638122 0.01497518338468065 -0.018408899594079028 -0.089221922178117058 0.0047344970224093242 -0.020785673865013652 -0.0032697958735574289 -0.00026631332106316592 0.10654872200224136 -0.028892312822646871 -0.078339396397987801 0.01783154625316254 -0.0085216733812790452 0.029298321187961846 0.027417814822213074 0.02632581379234224 0.0053099167838870313 -0.010438472243090234 -0.0060006479476682716 0.039369053203685611 -0.025887854250157539 -0.013501675470773911 -0.021725394224395622 0.059212552371525 -0.02178522444922816 0.047365921985718512 -0.0045922907904887037 -0.011194069905498073 -0.060860826411554894 0.046686758797260974 0.089986428618431091 0.041955451309680945 -0.030534774713333154 0.064073625332284209 -0.056617911280048977 -0.026255621520491941
leaf_weight=197 290 58 60 72 671 102 376 98 195 168 413 700 361 133 148 380 74 963 244 527 708 278 664 323 617 63 322 66 192 188 100 44 822 201 224 85 388 71 93 479 73 114 712 132 446 254 387 367 73 185 87 154 92 245 30 167 99 99 315 213 210 95
leaf_count=197 290 58 60 72 671 102 376 98 195 168 413 700 361 133 148 380 74 963 244 527 708 278 664 323 617 63 322 66 192 188 100 44 822 201 224 85 388 71 93 479 73 114 712 132 446 254 387 367 73 185 87 154 92 245 30 167 99 99 315 213 210 95
internal_value=3.37405e-05 0.027736 -0.0397093 0.0177289 -0.05768 0.0770736 0.00664365 0.0306957 -0.0170777 0.0672344 -0.0500747 0.0254297 -0.0756606 0.00104196 0.0385971 0.0733133 -0.012165 0.0134133 0.0115133 0.0229673 0.0355265 -0.0264951 -0.0436128 0.0202161 -0.0551841 0.108942 0.00427284 0.0276716 -0.0154692 -0.0794225 0.0142165 -0.00248024 -0.0041827 0.00461646 0.112358 -0.0388802 -0.0820398 0.0270633 -0.000367951 0.0315068 0.037862 0.0192253 0.00654978 -0.00865085 -0.00940025 0.0445835 -0.0232399 -0.0174652 -0.0145437 0.0543361 -0.0151334 0.0424959 -0.010273 -0.00785554 -0.046948 0.0500824 0.082092 0.037487 -0.0321905 0.0692291 -0.0519337 -0.0210884
internal_weight=16707 9845 6862 8186 3824 1659 4414 3772 3038 1270 2690 2266 1134 2416 1506 860 1998 1998 1508 1616 1000 1040 1192 1023 1498 389 1260 593 1028 773 1063 1156 866 445 326 498 576 219 415 650 781 490 845 970 896 506 665 741 205 410 454 408 287 691 694 225 267 171 375 593 827 287
internal_count=16707 9845 6862 8186 3824 1659 4414 3772 3038 1270 2690 2266 1134 2416 1506 860 1998 1998 1508 1616 1000 1040 1192 1023 1498 389 1260 593 1028 773 1063 1156 866 445 326 498 576 219 415 650 781 490 845 970 896 506 665 741 205 410 454 408 287 691 694 225 267 171 375 593 827 287
cat_boundaries=0 2
cat_threshold=339875088 4
is_linear=0
shrinkage=0.1


Tree=6
num_leaves=63
num_cat=1
split_feature=26 26 26 26 26 26 19 26 26 26 10 26 36 36 35 36 36 0 34 26 36 36 26 26 35 27 35 35 35 24 36 34 36 35 10 36 36 35 35 36 33 36 24 26 37 27 27 36 6 35 27 35 34 36 35 27 36 27 35 10 36 27
split_gain=1516.79 418.731 165.316 94.7271 65.752 31.4466 19.7835 16.9514 14.4485 10.2532 6.59937 4.25683 3.24777 2.91997 2.32453 2.17613 2.02977 1.89284 1.76933 1.74949 1.51956 1.44688 1.39918 1.39826 1.28715 1.33574 1.26141 1.13903 0.967052 0.957945 0.927404 0.915676 0.846181 0.775614 0.745309 0.735842 0.7255 0.670953 0.643461 0.625235 0.606109 0.556918 0.527785 0.516479 0.499334 0.48924 0.459903 0.454995 0.453557 0.451016 0.935927 0.35552 0.320623 0.633554 0.314231 0.306123 0.301799 0.285287 0.273286 0.2565 0.254832 0.251683
threshold=53.875000000000007 127.12500000000001 30.125000000000004 80.291666666666671 251.12500000000003 19.875000000000004 1.5000000000000002 40.291666666666679 100.87500000000001 65.875000000000014 19.860000000000003 24.875000000000004 25.500000000000004 6.5000000000000009 127.50000000000001 8.5000000000000018 18.500000000000004 0 117.13037634408603 16.875000000000004 42.500000000000007 33.500000000000007 35.125000000000007 59.375000000000007 43.500000000000007 10.6203404857952 21.500000000000004 33.500000000000007 20.500000000000004 69.500000000000014 89.500000000000014 117.13037634408603 62.500000000000007 110.50000000000001 49.265000000000008 6.5000000000000009 8.5000000000000018 79.500000000000014 83.500000000000014 103.50000000000001 59.021804062126655 102.50000000000001 59.500000000000007 46.875000000000007 0.070000000000000021 10.165300454651273 14.056433876817197 4.5000000000000009 1.0000000180025095e-35 69.500000000000014 3.5939764421413076 19.500000000000004 62.20922939068101 35.500000000000007 138.50000000000003 12.579745625409098 33.500000000000007 4.5000000000000098 67.500000000000014 96.77000000000001 6.5000000000000009 6.4807406984078524
decision_type=2 2 2 2 2 2 2 2 2 2 2 2 2 2 2 2 2 1 2 2 2 2 2 2 2 2 2 2 2 2 2 2 2 2 2 2 2 2 2 2 2 2 2 2 2 2 2 2 2 2 2 2 2 2 2 2 2 2 2 2 2 2
left_child=2 3 5 9 6 19 13 22 12 23 26 49 36 -3 27 55 46 37 20 -1 -17 -8 32 42 31 -26 -6 59 -19 38 58 -14 48 34 -15 -29 45 -18 -25 52 -38 -20 60 -37 57 -5 -11 -21 -4 -7 -51 -12 53 -16 -32 -10 -24 -34 -13 -9 -2 -44
right_child=1 4 7 8 10 11 21 14 15 16 51 30 24 33 39 18 17 28 41 47 -22 -23 56 29 25 -27 -28 35 -30 -31 54 -33 44 -35 -36 43 40 -39 -40 -41 -42 -43 61 -45 -46 -47 -48 -49 -50 50 -52 -53 -54 -55 -56 -57 -58 -59 -60 -61 -62 -63
leaf_value=-0.073999402696839064 0.0021167636214894183 0.054383612184813523 -0.033065182232685321 0.021530343984832636 0.11154982801141411 -0.048141954950988296 0.06682857912495023 -0.0019036567596833573 0.032235891037973863 0.010942458355394669 0.081505528344946399 -0.038572984326203347 0.016091298570261706 0.042091004798809693 -0.018903938212787921 0.02621503395105439 0.01007124762686748 0.008813416463963223 0.031969427463526913 -0.049128920979359572 0.01338046324194043 0.056959409364546187 -0.021461372702525787 0.001434840398552992 0.015180385979832312 0.0069797408328748176 0.094341417565148258 -0.0058296835112255502 -0.0010997880174742434 -0.0088658114378227359 -0.045745199257876241 0.025510914345020359 -0.037539332888343123 0.022564104234334081 0.034381345163081896 -0.018657925437660632 0.012928666040922205 0.0040719451939630431 -0.0041049263486005114 -0.031573749656478564 0.0214601589034869 0.017957352186952321 -0.0074148007447640664 -0.013808906337503086 -0.03126808551864492 0.029867046015603201 0.02013401223346591 -0.065692561128699922 -0.02033261417876929 -0.053221099799073593 -0.064756198350442662 0.065939829883904288 -0.016376830814167475 -0.029434381720128952 -0.052469124412927476 0.040075124179323518 -0.029153614930943445 -0.046781677982517499 -0.043707495164580466 -0.0093707319306006211 -0.0055532573948318112 -0.014107889086520727
leaf_weight=510 46 164 225 147 144 199 524 76 115 414 117 243 486 539 190 664 535 119 714 33 111 296 77 730 544 317 168 85 546 143 353 136 109 31 211 364 104 289 293 59 577 34 126 621 71 174 64 501 39 634 108 57 155 90 182 191 358 106 573 118 631 108
leaf_count=510 46 164 225 147 144 199 524 76 115 414 117 243 486 539 190 664 535 119 714 33 111 296 77 730 544 317 168 85 546 143 353 136 109 31 211 364 104 289 293 59 577 34 126 621 71 174 64 501 39 634 108 57 155 90 182 191 358 106 573 118 631 108
internal_value=-0.000135724 0.022685 -0.0399593 0.0123713 0.0609573 -0.0549115 0.0519339 -0.0217614 0.022677 0.0013747 0.0935536 -0.0483113 0.0176987 0.0419803 -0.0158617 0.0294273 0.00654721 0.00472153 0.0278335 -0.0693414 0.0243964 0.0633398 -0.0322641 -0.00352467 0.0147064 0.0121727 0.102615 -0.0135671 0.000674595 -0.00122935 -0.0445973 0.0181885 -0.0357029 0.0393095 0.0399707 -0.0148465 0.0221084 0.00787911 -0.000154277 -0.0216937 0.0201781 0.0313573 -0.00645791 -0.0156179 -0.0396734 0.026128 0.0122126 -0.0647627 -0.0312681 -0.0535905 -0.054985 0.0768124 -0.0202843 -0.0223814 -0.0481262 0.0372436 -0.0278443 -0.0422915 -0.0422276 -0.00647025 -0.00502975 -0.0105508
internal_weight=16688 10609 6079 8358 2251 3336 1765 2743 4314 4044 486 2292 2485 945 1758 1829 1967 1489 1523 1044 775 820 985 2077 1483 861 312 1264 665 1166 1351 622 550 781 750 1070 1002 824 1023 494 681 748 911 985 286 321 478 534 264 941 742 174 435 280 535 306 435 215 816 194 677 234
internal_count=16688 10609 6079 8358 2251 3336 1765 2743 4314 4044 486 2292 2485 945 1758 1829 1967 1489 1523 1044 775 820 985 2077 1483 861 312 1264 665 1166 1351 622 550 781 750 1070 1002 824 1023 494 681 748 911 985 286 321 478 534 264 941 742 174 435 280 535 306 435 215 816 194 677 234
cat_boundaries=0 2
cat_threshold=272764944 134
is_linear=0
shrinkage=0.1


Tree=7
num_leaves=63
num_cat=2
split_feature=26 26 26 26 26 26 26 26 26 19 26 26 36 26 35 35 26 36 36 34 0 35 36 0 35 34 27 35 26 36 36 34 36 6 27 16 27 27 36 36 27 36 29 27 36 35 35 36 33 24 27 27 26 36 27 35 27 26 36 26 27 6
split_gain=1229.92 341.061 155.126 88.304 38.2335 32.2458 12.4171 10.9451 10.3494 7.75536 3.20161 2.96495 2.41654 2.31775 2.19481 1.97607 1.95092 1.88255 1.7556 1.70166 1.65572 1.69035 1.51566 1.86427 1.32588 1.15035 1.05204 1.04581 0.99048 0.915957 0.875639 1.23179 0.86986 0.855134 0.793292 0.780788 0.76158 0.740436 0.697125 0.69088 0.675913 0.675335 0.66292 0.662097 0.653163 0.581084 0.543219 0.515112 0.505981 0.502641 0.687024 0.428249 0.415479 0.36876 0.347257 0.320374 0.311623 0.302854 0.288178 0.281841 0.278513 0.277825
threshold=55.875000000000007 142.12500000000003 32.583333333333336 86.875000000000014 271.12500000000006 21.875000000000004 69.375000000000014 108.12500000000001 44.125000000000007 1.5000000000000002 27.583333333333339 18.375000000000004 21.500000000000004 368.12500000000006 86.500000000000014 10.500000000000002 38.125000000000007 13.500000000000002 14.500000000000002 117.13037634408603 0 91.500000000000014 6.5000000000000009 1 137.50000000000003 101.72491039426525 13.475286020464777 5.5000000000000009 14.875000000000002 79.500000000000014 12.500000000000002 55.734169653524496 32.500000000000007 1.0000000180025095e-35 10.801234497346444 51.500000000000007 25.409151881315118 13.14026889628469 44.500000000000007 129.50000000000003 29.754549363606714 36.500000000000007 38.150000000000006 9.8994949366116725 5.5000000000000009 152.50000000000003 18.500000000000004 94.500000000000014 59.021804062126655 33.500000000000007 8.0570879768478854 8.2209083034256949 23.875000000000004 10.500000000000002 5.8003773480626277 40.500000000000007 13.304134695650076 211.62500000000003 19.500000000000004 121.12500000000001 7.04154339142588 1.0000000180025095e-35
decision_type=2 2 2 2 2 2 2 2 2 2 2 2 2 2 2 2 2 2 2 2 1 2 2 1 2 2 2 2 2 2 2 2 2 2 2 2 2 2 2 2 2 2 2 2 2 2 2 2 2 2 2 2 2 2 2 2 2 2 2 2 2 2
left_child=2 3 5 6 9 11 18 12 16 27 33 28 44 -6 22 -11 49 36 43 32 34 -22 56 -24 30 37 -16 -3 -1 61 51 41 -19 45 -20 -35 59 -14 57 -27 -29 -32 -21 -2 -5 52 -15 -33 -46 -4 -51 -10 -7 -30 -26 -42 -8 -17 -18 -9 -60 -12
right_child=1 4 8 7 13 10 14 17 24 15 29 -13 25 46 26 38 58 19 20 42 21 -23 23 -25 54 39 -28 40 53 -31 31 47 -34 35 -36 -37 -38 -39 -40 -41 55 -43 -44 -45 48 -47 -48 -49 -50 50 -52 -53 -54 -55 -56 -57 -58 -59 60 -61 -62 -63
leaf_value=-0.072865207880348365 0.0020068723578276996 0.053473018390544948 -0.024142439660645325 0.029020438583627822 0.073487542443356271 -0.047377789404280612 0.015420029744402403 0.030944965314120054 -0.0074004526353420282 0.068248989780743924 -0.034351531886526225 -0.054175288796648104 0.016566933200427271 0.099776294126230125 0.0042569715996176065 0.053537594285649318 -0.015406807252605046 0.025324145162919438 -0.0070430061717008802 0.029352180937098134 0.00037387912457343195 -0.0068335279102426623 0.0035500341201533457 0.01114091231064371 -0.014634279233277701 0.021909015478003165 -0.009455769628569085 0.041331408827108299 -0.054382266090029767 -0.040229335443295516 -0.012440434587703657 -0.0064567273583256831 0.014318498544375747 -0.028069017197077092 -0.019723080532319512 -0.044899762311467417 0.04738532427633018 0.01030363377880089 0.046744868051898369 0.0062069599691312767 0.035392627709133678 -0.020020649145693473 0.038775783620382615 0.011015932119794583 0.013585848403828486 -0.050380989665887804 0.086289499090476479 -0.014098150017421826 0.022992452595345551 -0.029700627840010325 -0.045871370570624577 0.0017929432404133073 -0.042140644645223158 -0.063641513528502489 -0.022781908860273453 0.020518818299751732 0.024314674268017956 0.059939509469109614 -0.020541555272225457 0.037379632438166763 -0.029087885745268851 -0.027201071504380676
leaf_weight=153 289 68 159 185 117 298 125 207 194 179 456 533 633 135 278 283 111 248 196 809 1249 439 472 1317 123 429 69 278 104 348 428 440 108 77 66 53 56 279 110 31 42 168 94 113 69 195 175 111 597 261 33 68 840 548 106 31 66 332 470 177 48 90
leaf_count=153 289 68 159 185 117 298 125 207 194 179 456 533 633 135 278 283 111 248 196 809 1249 439 472 1317 123 429 69 278 104 348 428 440 108 77 66 53 56 279 110 31 42 168 94 113 69 195 175 111 597 261 33 68 840 548 106 31 66 332 470 177 48 90
internal_value=-0.000177254 0.0211443 -0.0345788 0.0129528 0.0613739 -0.0479191 0.00367459 0.024018 -0.0164456 0.0528985 -0.0408435 -0.0603437 0.0193823 0.0874487 0.00885206 0.0581636 -0.024035 0.0300685 -0.00144943 0.028036 -0.00269007 -0.00149465 0.0101372 0.00922335 -0.0114207 0.0167574 0.00151089 0.0414276 -0.0643555 -0.0359933 -0.0102597 -0.011452 0.0220348 -0.0437807 -0.00992278 -0.0352211 0.0358075 0.0146642 0.0555829 0.0208666 0.0389487 -0.0146071 0.030375 0.00456032 0.0235896 -0.0445884 0.0924647 -0.00801886 0.0220397 -0.0290837 -0.0316651 -0.00501664 -0.0435525 -0.0622501 -0.0184883 0.029439 0.0186042 0.0570853 -0.0203586 0.0340003 -0.021388 -0.0332248
internal_weight=16766 10351 6415 8601 1750 3695 4679 3922 2720 1323 2357 1338 2223 427 2327 904 1082 1699 2352 1259 1950 1688 1980 1789 1638 1372 347 419 805 894 1409 1147 356 1463 262 130 440 912 725 460 351 596 903 402 851 1333 310 551 666 453 294 262 1138 652 229 73 191 615 629 384 518 546
internal_count=16766 10351 6415 8601 1750 3695 4679 3922 2720 1323 2357 1338 2223 427 2327 904 1082 1699 2352 1259 1950 1688 1980 1789 1638 1372 347 419 805 894 1409 1147 356 1463 262 130 440 912 725 460 351 596 903 402 851 1333 310 551 666 453 294 262 1138 652 229 73 191 615 629 384 518 546
cat_boundaries=0 2 3
cat_threshold=167772178 1 579362819
is_linear=0
shrinkage=0.1


Tree=8
num_leaves=63
num_cat=4
split_feature=26 26 26 26 26 19 26 26 26 26 26 26 35 35 35 35 35 35 0 26 2 10 27 27 26 26 27 35 6 36 36 36 35 35 26 33 27 34 35 27 27 35 16 16 27 36 34 27 35 0 5 25 36 35 0 35 27 36 35 5 27 35
split_gain=997.297 270.901 138.372 70.5693 26.8853 26.0997 11.1415 9.06406 8.11815 4.70769 2.916 2.72335 2.19446 2.17974 2.09978 1.7733 1.45466 1.38888 2.16681 1.37001 1.3197 1.17722 1.11225 1.03756 1.03889 0.905424 0.899219 0.877162 0.857002 0.832544 0.777603 0.771605 0.767672 0.758718 0.64353 0.589216 0.599173 0.575995 0.549074 0.984546 0.527439 0.526571 0.487309 0.48652 0.464912 0.462537 0.457606 0.438899 0.436843 0.423825 0.4232 0.457754 0.411073 0.392282 0.372026 0.353097 0.35094 0.334592 0.333204 0.330693 0.41801 0.298563
threshold=57.291666666666679 152.12500000000003 33.375000000000007 90.291666666666671 22.375000000000004 2.5000000000000004 74.875000000000014 114.37500000000001 44.125000000000007 204.12500000000003 28.125000000000004 18.375000000000004 91.500000000000014 13.500000000000002 19.500000000000004 18.500000000000004 42.500000000000007 6.5000000000000009 0 51.375000000000007 1 49.265000000000008 11.441882129556602 24.802553404396594 101.62500000000001 38.125000000000007 14.430869689661817 12.500000000000002 1.0000000180025095e-35 26.500000000000004 64.500000000000014 40.500000000000007 88.500000000000014 110.50000000000001 14.875000000000002 57.052120669056158 12.579745625409098 34.05465949820789 77.500000000000014 4.0311288741492799 5.686240703077317 4.5000000000000009 5.5000000000000009 51.500000000000007 11.528949070347521 7.5000000000000009 62.20922939068101 10.904891868637071 35.500000000000007 2 9.5000000000000018 28.500000000000004 8.5000000000000018 3.5000000000000004 3 119.50000000000001 4.7609522856952422 67.500000000000014 86.500000000000014 5.5000000000000009 25.409151881315118 118.50000000000001
decision_type=2 2 2 2 2 2 2 2 2 2 2 2 2 2 2 2 2 2 1 2 1 2 2 2 2 2 2 2 2 2 2 2 2 2 2 2 2 2 2 2 2 2 2 2 2 2 2 2 2 1 2 2 2 2 1 2 2 2 2 2 2 2
left_child=2 3 4 6 11 9 12 13 25 59 28 34 17 47 41 53 35 44 -19 29 32 33 54 24 -15 50 -22 -7 38 -10 37 -23 -18 -16 -1 -8 -37 45 -6 -40 -39 -9 -25 -30 -2 -12 55 -5 -21 58 51 -4 -36 -11 -14 -31 -32 -48 -50 60 -3 -27
right_child=1 5 8 7 10 27 16 14 19 15 30 -13 22 23 21 -17 20 18 -20 48 26 31 -24 42 -26 61 -28 -29 43 46 56 -33 -34 -35 52 36 -38 40 39 -41 -42 -43 -44 -45 -46 -47 57 -49 49 -51 -52 -53 -54 -55 -56 -57 -58 -59 -60 -61 -62 -63
leaf_value=-0.064705724330068382 0.0074572984952219704 0.041686857877106506 -0.022177163431964197 0.021999287441501331 -0.036103759537962153 0.094101644403794246 0.0071401687281904746 0.041052037349436438 -0.0087612930278953092 0.071431366886411399 -0.02447567339986563 -0.048425771709270232 0.00010173897437238892 0.015936884613371598 0.030525689157340209 0.050985152330784517 0.012944669816872305 -0.0031861791481643839 0.0037340338252077145 -0.0035545074998286508 0.0057817830974220457 0.024693090053131948 -0.013911511094577365 -0.0024595037912755898 0.02099983944656468 -0.015523618548356283 -0.0058366672845210797 0.078485899676608684 -0.024664078444823045 -0.014951292472736289 -0.032178070551837717 0.013244454769333931 0.0053365306088990361 0.019543922652956097 -0.045852371912736167 0.013248677958693842 0.020435277219461714 -0.027064723597562058 -0.039547060811938956 -0.049027513050370751 -0.014441652531571559 0.032752965536772038 0.013372468064690746 -0.03777469016611576 0.01977062210440636 -0.040671105862691487 -0.0051039896950074671 0.028504192565002889 -0.0013120819287771573 -0.011201153492883725 -0.022671790822925336 -0.036340391461271791 -0.056993239135184184 0.059295810074681959 -0.0054608782489406725 -0.022218442446255423 -0.039154066061529956 -0.013491807026026882 -0.0079128364470255168 0.044722928961464896 0.025381636794190855 -0.020411889218582363
leaf_weight=158 85 57 47 231 398 84 124 127 400 62 35 612 258 935 557 382 494 646 1454 256 296 207 105 35 755 220 85 256 76 344 358 88 184 79 64 620 148 234 795 152 43 356 42 59 49 57 72 243 121 312 266 63 563 306 221 90 130 150 209 400 31 377
leaf_count=158 85 57 47 231 398 84 124 127 400 62 35 612 258 935 557 382 494 646 1454 256 296 207 105 35 755 220 85 256 76 344 358 88 184 79 64 620 148 234 795 152 43 356 42 59 49 57 72 243 121 312 266 63 563 306 221 90 130 150 209 400 31 377
internal_value=1.30194e-05 0.019977 -0.0299629 0.0128504 -0.0427219 0.0579891 0.00483598 0.0233034 -0.0136771 0.0511665 -0.0361285 -0.053718 0.000813311 0.0193301 0.0295825 0.0562334 0.0106429 0.00224022 0.00160735 -0.00995215 0.00812274 0.0267294 -0.00463962 0.0176919 0.0182098 -0.0211397 0.00310009 0.0826086 -0.03886 -0.0123966 -0.0313716 0.0213342 0.0107328 0.0291944 -0.0577771 0.0136224 0.0146584 -0.027664 -0.0396628 -0.0411189 -0.0251642 0.0350154 0.00623685 -0.0306295 0.012073 -0.0348392 -0.0145965 0.0253871 -0.00706702 -0.00845994 -0.0250495 -0.0305431 -0.0559309 0.0615284 -0.00258241 -0.0165059 -0.0341127 -0.0108065 -0.00534243 0.0432801 0.0362927 -0.0186395
internal_weight=16663 10002 6661 8424 3734 1578 4769 3655 2927 1238 2337 1397 2818 2241 1414 750 1951 2234 2100 1954 1059 931 584 1767 1690 973 381 340 1480 1056 857 295 678 636 785 892 768 369 1345 947 277 483 77 135 134 92 656 474 898 642 376 110 627 368 479 434 488 222 330 488 88 597
internal_count=16663 10002 6661 8424 3734 1578 4769 3655 2927 1238 2337 1397 2818 2241 1414 750 1951 2234 2100 1954 1059 931 584 1767 1690 973 381 340 1480 1056 857 295 678 636 785 892 768 369 1345 947 277 483 77 135 134 92 656 474 898 642 376 110 627 368 479 434 488 222 330 488 88 597
cat_boundaries=0 2 3 5 7
cat_threshold=168312834 1 264336 545285120 576 536875008 640
is_linear=0
shrinkage=0.1


Tree=9
num_leaves=63
num_cat=3
split_feature=26 26 26 26 26 26 26 26 26 26 26 10 26 36 26 36 0 36 35 35 33 26 35 27 35 36 37 34 35 35 36 36 0 33 35 34 35 34 36 19 35 35 11 26 0 35 27 27 36 29 27 36 27 27 27 26 35 26 36 27 27 36
split_gain=819.038 213.658 111.276 55.2834 23.7042 22.2862 8.09887 6.88996 5.98976 3.18856 2.67274 2.16491 1.95651 1.78494 1.56743 1.35469 1.4797 1.31779 1.10718 1.02151 0.990737 0.972376 0.961048 0.801109 0.785529 0.742332 0.798089 0.738277 0.72739 0.723373 0.668103 0.663536 0.627871 0.613653 0.702361 0.609381 0.600195 0.573824 0.558626 0.622486 0.54906 0.538315 0.53336 0.51664 0.491469 0.647491 0.438537 0.417448 0.402011 0.399306 0.536323 0.398058 0.37631 0.366964 0.330747 0.318301 0.304097 0.300171 0.29024 0.268828 0.254792 0.241495
threshold=57.291666666666679 146.37500000000003 34.125000000000007 89.291666666666671 21.875000000000004 259.12500000000006 72.375000000000014 113.62500000000001 45.291666666666679 199.37500000000003 28.583333333333339 19.860000000000003 17.375000000000004 12.500000000000002 64.875000000000014 24.500000000000004 0 17.500000000000004 39.500000000000007 151.50000000000003 138.77658303464759 40.291666666666679 152.50000000000003 14.628738838327804 17.500000000000004 31.500000000000004 0.05000000000000001 117.13037634408603 59.500000000000007 20.500000000000004 154.50000000000003 4.5000000000000009 1 76.247535842293914 68.500000000000014 55.734169653524496 10.500000000000002 91.487455197132633 4.5000000000000009 1.0000000180025095e-35 113.50000000000001 107.50000000000001 2.0500000000000003 474.37500000000006 2 83.500000000000014 10.165300454651273 5.8523499553598226 4.5000000000000009 70.245000000000019 7.3936222762589727 50.500000000000007 7.2341781380701606 21.52808223936475 11.676186592091332 14.875000000000002 22.500000000000004 165.87500000000003 123.50000000000001 16.266017544920224 3.5590260840104397 48.500000000000007
decision_type=2 2 2 2 2 2 2 2 2 2 2 2 2 2 2 2 1 2 2 2 2 2 2 2 2 2 2 2 2 2 2 2 1 2 2 2 2 2 2 2 2 2 2 2 1 2 2 2 2 2 2 2 2 2 2 2 2 2 2 2 2 2
left_child=2 3 4 6 12 9 14 13 21 51 19 43 55 46 25 38 30 53 37 33 -20 49 24 -18 -10 48 -27 59 47 54 -17 -14 -31 34 -6 41 -11 -15 -8 -40 -37 -33 -29 -7 45 -26 -5 -12 -2 50 -4 57 -30 -9 -16 -1 -13 -3 -23 -19 -35 -38
right_child=1 5 8 7 10 11 15 17 22 36 28 56 31 18 29 16 23 27 20 -21 -22 58 -24 -25 44 26 -28 42 52 32 -32 35 -34 60 -36 40 61 -39 39 -41 -42 -43 -44 -45 -46 -47 -48 -49 -50 -51 -52 -53 -54 -55 -56 -57 -58 -59 -60 -61 -62 -63
leaf_value=-0.058718444808171344 0.0088803263322915892 0.034405229256259211 -0.020797144254166421 0.018988716913448587 -0.030663569978154871 0.070537511473803813 0.017980685888497688 0.028905299830749548 -0.00038559841766702728 0.054086333668077149 -0.023917713086750059 0.060678897097579433 -0.03126962667419797 0.016296729759260518 0.0060730965851689689 0.0093245063328406524 0.0038809336630297609 0.021882580095127727 0.011160104762417852 -0.040908386082603387 0.019403749074002632 -0.014338389770897825 -0.016877349866770728 -0.0067576675147942664 -0.0085863402695575252 -0.0082291084463188263 -0.0017333818784633131 0.027936829483169886 -0.028503575135791898 -0.0050222130668135662 -0.0030671442590613409 -0.047336826391939847 0.0026875977079768012 -0.030734402143349084 -0.036288646752551453 -0.036505707640816849 0.046403033679395217 0.021881190407026921 0.0061260695679782517 0.013077673898619004 -0.045993778639369542 -0.060665982736731475 0.022280107913356204 0.084213081209195989 -0.0059403659053895684 -0.014775346758035133 0.02484102650996892 -0.010458543865130314 -0.00011753568919661274 -0.010756873092491572 -0.032536585455168375 0.028454912017419266 -0.038826138248786016 0.036727020395429515 0.015793413474507953 -0.05154222049294635 0.044791260920464995 0.040933433913666273 -0.023038827578226728 0.013710125824334202 -0.022174506739623123 0.033983903498418871
leaf_weight=155 55 190 434 272 367 263 133 361 129 153 147 116 41 630 159 1018 318 88 674 259 189 507 128 90 645 289 546 390 563 112 45 264 790 176 884 126 507 280 198 384 224 52 356 71 611 233 296 30 438 37 46 66 46 94 45 469 31 229 44 90 61 30
leaf_count=155 55 190 434 272 367 263 133 361 129 153 147 116 41 630 159 1018 318 88 674 259 189 507 128 90 645 289 546 390 563 112 45 264 790 176 884 126 507 280 198 384 224 52 356 71 611 233 296 30 438 37 46 66 46 94 45 469 31 229 44 90 61 30
internal_value=-0.000179543 0.017935 -0.027293 0.0114171 -0.0383074 0.0507339 0.0041098 0.0204887 -0.0121605 0.0432382 -0.0326028 0.068917 -0.0491311 0.0171705 0.000141406 0.00852632 0.00678237 0.0261053 0.0155872 -0.0348116 0.0129859 -0.0180593 -0.00854403 0.00148704 -0.00787476 -0.00217374 -0.00398876 0.0238621 -0.0276555 0.00292071 0.00871563 -0.0452792 0.00169993 -0.0337236 -0.0346643 -0.0460935 0.0476925 0.0180372 0.0120997 0.0107273 -0.0426918 -0.0497147 0.0252708 0.0736873 -0.0085229 -0.0101285 0.0220768 -0.0217081 0.000902227 -0.0212061 -0.0219875 0.036816 -0.0293456 0.0305982 0.00828387 -0.0534159 0.0576537 0.0380621 -0.0150736 0.0178501 -0.0286336 0.0457737
internal_weight=16674 9996 6678 8340 3864 1656 4620 3720 2814 1175 2533 481 1331 2341 2434 2186 1471 1379 1773 1747 863 1068 1746 408 1618 1328 835 924 786 1106 1063 707 902 1488 1251 666 690 910 715 582 350 316 746 334 1489 878 568 177 493 517 480 485 609 455 204 624 147 419 551 178 237 537
internal_count=16674 9996 6678 8340 3864 1656 4620 3720 2814 1175 2533 481 1331 2341 2434 2186 1471 1379 1773 1747 863 1068 1746 408 1618 1328 835 924 786 1106 1063 707 902 1488 1251 666 690 910 715 582 350 316 746 334 1489 878 568 177 493 517 480 485 609 455 204 624 147 419 551 178 237 537
cat_boundaries=0 2 4 6
cat_threshold=339875088 4 134758402 1 168329344 1
is_linear=0
shrinkage=0.1


Tree=10
num_leaves=63
num_cat=2
split_feature=26 26 26 26 26 26 26 19 26 26 26 26 26 36 34 36 36 1 35 35 27 36 34 36 27 35 35 11 35 36 10 35 34 35 6 35 27 35 6 25 16 27 36 27 0 27 33 36 29 27 10 16 27 16 35 16 35 35 35 27 27 27
split_gain=657.087 171.737 98.3439 37.256 24.3076 18.7565 6.32196 5.10185 4.92571 3.40702 1.97413 1.97087 1.92595 1.53474 1.52421 1.39157 1.16412 1.27942 0.871992 0.832785 0.820613 0.809298 1.1309 0.795225 0.743136 0.701083 0.682093 0.626603 0.621996 0.601767 0.642165 0.889058 0.596093 0.578793 0.544357 0.537576 0.533107 0.529341 0.516991 0.497807 0.580259 0.468765 0.451822 0.434816 0.42243 0.413713 0.39897 0.396086 0.388592 0.482809 0.387715 0.382932 0.380481 0.378272 0.397359 0.350929 0.318276 0.318243 0.301209 0.286921 0.286813 0.284808
threshold=58.291666666666679 136.58333333333334 35.125000000000007 84.375000000000014 259.12500000000006 22.875000000000004 100.87500000000001 1.5000000000000002 45.875000000000007 73.875000000000014 28.583333333333339 18.875000000000004 368.12500000000006 23.500000000000004 117.13037634408603 26.500000000000004 18.500000000000004 0 5.5000000000000009 20.500000000000004 8.602325267042632 21.500000000000004 55.734169653524496 33.500000000000007 17.339742404853315 91.500000000000014 5.5000000000000009 2.0500000000000003 29.500000000000004 4.5000000000000009 131.03500000000005 134.50000000000003 101.72491039426525 59.500000000000007 1.0000000180025095e-35 149.50000000000003 11.837439424263112 24.500000000000004 1.0000000180025095e-35 145.50000000000003 10.500000000000002 5.9721576223896564 4.5000000000000009 4.9665548085837896 1 10.165300454651273 59.021804062126655 4.5000000000000009 70.245000000000019 5.8523499553598226 124.14500000000001 51.500000000000007 11.146748404803995 6.5000000000000009 66.500000000000014 9.5000000000000018 51.500000000000007 86.500000000000014 72.500000000000014 5.9721576223896564 8.7702147446152559 6.5574385243019799
decision_type=2 2 2 2 2 2 2 2 2 2 2 2 2 2 2 2 2 1 2 2 2 2 2 2 2 2 2 2 2 2 2 2 2 2 2 2 2 2 2 2 2 2 2 2 1 2 2 2 2 2 2 2 2 2 2 2 2 2 2 2 2 2
left_child=2 3 5 9 7 11 15 18 23 16 34 29 -6 32 36 45 42 28 -3 -9 -19 59 60 61 58 38 -14 -16 -18 -1 37 -32 47 41 43 -24 -15 -31 46 -20 -41 -12 -2 -7 -44 -5 -11 -8 49 -25 -35 -36 -27 -13 -55 -51 -26 -45 -17 -10 -23 -4
right_child=1 4 8 6 12 10 13 19 21 25 33 53 26 14 27 24 17 20 39 -21 -22 22 35 48 56 52 -28 -29 -30 30 31 -33 -34 50 51 -37 -38 -39 -40 40 -42 -43 44 57 -46 -47 -48 -49 -50 55 -52 -53 -54 54 -56 -57 -58 -59 -60 -61 -62 -63
leaf_value=-0.033326186303128585 0.009962825886318534 0.03943496260010166 -0.012385576113073785 0.013713628623137407 0.053171273044965883 -0.030903601323226004 0.026191825748041825 0.046105448947083662 -0.0056214682039510844 0.0041077923809137553 -0.021840265980507766 -0.050074606247850366 0.08324567602901925 0.017492890528812529 0.023838055078079231 0.012091277598110873 0.0064823530427570086 -0.0011948700393825684 0.030212535666619272 0.039082462425978924 -0.0082434540714397733 -0.011156439625466353 -0.0055287858294657509 -0.016344367075626823 0.0081758549487858552 0.0046017421918466339 0.065372194907219294 0.01808955539319226 0.00053948338439404025 -0.046311407244723775 -0.04219199085936827 -0.052479250395475935 0.02649834641488269 -0.022895500151272109 -0.019012658829490346 -0.014455352771423152 0.009960659249366368 -0.057517526878250971 0.014978039433297358 0.012041054098446649 0.026217916651683694 -0.0082766112761900722 -0.0024409519729358311 -0.027615308626131582 0.0047260512303801856 0.018384818158977266 0.008417177173320186 0.019683520243973934 -0.0063442418561669798 -0.030961659212791644 -0.028188698821419656 -0.030150745984385996 -0.005933801298797654 -0.03195405202568509 -0.039266618260155164 -0.019658106539035377 -0.001530320609728935 -0.041544267360997554 0.0078885797412922599 -0.00098603993441246664 -0.017764357588757045 -0.0025314989088870148
leaf_weight=46 126 80 313 531 161 1245 134 327 323 299 143 36 40 156 334 705 214 451 310 540 260 339 831 527 63 85 277 509 975 137 441 133 383 270 74 73 252 116 94 40 135 33 101 32 365 321 792 454 32 42 406 67 56 127 477 117 71 84 236 228 86 33
leaf_count=46 126 80 313 531 161 1245 134 327 323 299 143 36 40 156 334 705 214 451 310 540 260 339 831 527 63 85 277 509 975 137 441 133 383 270 74 73 252 116 94 40 135 33 101 32 365 321 792 454 32 42 406 67 56 127 477 117 71 84 236 228 86 33
internal_value=9.29594e-05 0.0165703 -0.0238006 0.0101111 0.0434935 -0.0342836 0.0166698 0.0369266 -0.0100241 0.00298117 -0.0286745 -0.0429856 0.0630486 0.0203082 0.0179536 0.0124661 0.000801246 -0.000405776 0.0294163 0.0417813 -0.00372801 -0.00694072 -0.00827694 -0.0154604 0.0100549 0.0070743 0.0678822 0.0203927 0.0016002 -0.0461876 -0.0468618 -0.0446627 0.0233202 -0.0247408 -0.030888 -0.0062648 0.0128764 -0.0516556 0.00786684 0.027686 0.0230643 -0.0193582 0.00466929 -0.0315334 0.00321972 0.015493 0.00724099 0.0212087 -0.0173716 -0.017876 -0.0261115 -0.0244803 0.000405093 -0.0385528 -0.0377844 -0.0228188 0.00305979 -0.0379707 0.0110467 -0.00370862 -0.0125321 -0.0114557
internal_weight=16688 9877 6811 7967 1910 3867 4149 1432 2944 3818 2354 1513 478 2222 1251 1927 2492 1900 565 867 711 1880 1329 1064 1075 1326 317 843 1189 873 827 574 971 852 1502 904 408 253 1185 485 175 176 592 1361 466 852 1091 588 718 686 676 141 141 640 604 159 134 116 941 551 425 346
internal_count=16688 9877 6811 7967 1910 3867 4149 1432 2944 3818 2354 1513 478 2222 1251 1927 2492 1900 565 867 711 1880 1329 1064 1075 1326 317 843 1189 873 827 574 971 852 1502 904 408 253 1185 485 175 176 592 1361 466 852 1091 588 718 686 676 141 141 640 604 159 134 116 941 551 425 346
cat_boundaries=0 1 3
cat_threshold=553670724 167772176 1
is_linear=0
shrinkage=0.1


Tree=11
num_leaves=63
num_cat=2
split_feature=26 26 26 26 26 26 26 26 26 26 10 26 35 1 35 36 36 26 35 0 35 36 34 6 35 27 26 27 16 36 35 36 26 37 35 35 33 36 35 27 36 11 27 35 36 6 35 6 37 35 27 29 33 27 27 36 27 16 17 27 40 27
split_gain=530.604 150.894 58.3097 35.3549 21.5636 11.6113 6.04392 5.47839 5.10086 3.42577 2.05701 1.62924 1.40878 1.36297 1.03744 0.925741 0.918351 0.91109 0.903913 0.845081 1.19343 0.752675 0.951925 0.724263 0.666127 0.660059 0.654588 0.643796 0.59897 0.597235 0.584246 0.573603 0.544364 0.530866 0.661191 0.520626 0.488772 0.479444 0.472364 0.466116 0.450396 0.867277 0.519553 0.420582 0.419225 0.391607 0.383329 0.372431 0.368836 0.704212 0.408253 0.385879 0.364849 0.3568 0.348957 0.328045 0.294734 0.281583 0.248347 0.455162 0.246306 0.236797
threshold=53.875000000000007 130.29166666666671 30.583333333333339 79.875000000000014 251.12500000000003 22.375000000000004 94.875000000000014 40.291666666666679 173.62500000000003 65.875000000000014 19.860000000000003 16.875000000000004 26.500000000000004 0 131.50000000000003 34.500000000000007 17.500000000000004 25.375000000000004 12.500000000000002 1 63.500000000000007 6.5000000000000009 55.734169653524496 1.0000000180025095e-35 34.500000000000007 24.802553404396594 474.37500000000006 15.195942440884226 5.5000000000000009 31.500000000000004 3.5000000000000004 34.500000000000007 204.12500000000003 0.070000000000000021 75.500000000000014 156.50000000000003 96.29256272401436 9.5000000000000018 40.500000000000007 6.800735254367722 64.500000000000014 2.9500000000000006 5.8003773480626277 42.500000000000007 10.500000000000002 1.0000000180025095e-35 5.5000000000000009 1.0000000180025095e-35 0.05000000000000001 106.50000000000001 3.947573094108991 135.19000000000003 59.021804062126655 24.185050478894343 4.1129875597510352 2.5000000000000004 11.146748404803995 51.500000000000007 1.0000000180025095e-35 6.9372126125002422 -0.6830127018922193 8.3466560170326201
decision_type=2 2 2 2 2 2 2 2 2 2 2 2 2 1 2 2 2 2 2 1 2 2 2 2 2 2 2 2 2 2 2 2 2 2 2 2 2 2 2 2 2 2 2 2 2 2 2 2 2 2 2 2 2 2 2 2 2 2 2 2 2 2
left_child=2 3 5 9 8 11 15 40 16 21 26 44 30 37 23 47 55 -7 56 24 -21 61 29 43 -20 -15 -6 -17 -29 -23 53 -24 -10 38 -35 45 -32 -14 -18 -25 58 -42 -43 60 -1 -19 -12 52 49 51 -51 -13 -5 -8 -16 -3 -11 -47 -4 -60 -9 -2
right_child=1 4 7 6 10 17 12 14 32 18 46 48 13 25 54 27 33 35 19 20 -22 22 31 39 -26 -27 -28 28 -30 -31 36 -33 -34 34 -36 -37 -38 -39 -40 -41 41 42 -44 -45 -46 57 -48 -49 -50 50 -52 -53 -54 -55 -56 -57 -58 -59 59 -61 -62 -63
leaf_value=-0.034724273625761269 0.00046127036515879785 0.038240866545511759 -0.023388716054386371 0.0066121344662079702 0.05684705810333656 -0.030319110134882588 0.022636287098634057 -0.0083573566410424464 0.033097765937207209 0.0073245677456725391 0.057694138849482816 -0.035985028587742038 0.023432148852855855 0.010576146210875673 -0.01045764981175986 0.0082260604937005877 0.022394038275518318 -0.025779364764584468 0.0013300913565596896 0.0073154525359499928 0.0013861764235627322 -0.0058759517352630405 0.0010278133779483732 -0.006122399262733177 -0.0082385816604501616 -0.0011198699029999514 0.06964577077383019 -0.0087672685533603228 0.0050756539087362601 -0.018057189063698638 0.017419202993859642 -0.0029794509987274573 0.038946149271350726 0.033069839990801285 0.017813761864921878 -0.034085912170348232 0.023178021463766768 0.016001983953944685 0.013125992908608171 0.0055283417429534661 -0.016104890348409149 -0.021599104151526397 -0.031674946283691385 -0.0095686339783678485 -0.045187197682949216 -0.015355957840581106 0.04303644879444226 0.017492917941696582 -0.031770976270710287 -0.040201793243045264 -0.054559665638953453 -0.024337265295226399 0.011866653526385695 0.036020204665199403 -0.016131636541163279 0.028174010684518039 0.015566765672216813 -0.02483490342131028 -0.016723481311258101 -0.0047086922417243797 -0.0017927981988464126 0.0085181013666258392
leaf_weight=63 68 48 50 169 245 699 99 104 309 139 33 436 100 307 222 794 234 1054 253 630 736 201 510 76 101 57 82 43 107 50 762 1188 554 89 48 76 198 1017 79 61 191 161 88 937 441 78 147 96 178 246 31 40 689 30 232 256 65 64 322 36 127 78
leaf_count=63 68 48 50 169 245 699 99 104 309 139 33 436 100 307 222 794 234 1054 253 630 736 201 510 76 101 57 82 43 107 50 762 1188 554 89 48 76 198 1017 79 61 191 161 88 937 441 78 147 96 178 246 31 40 689 30 232 256 65 64 322 36 127 78
internal_value=1.35033e-05 0.013462 -0.0237171 0.00749426 0.0372931 -0.0323316 0.0136146 -0.0124543 0.0316142 0.000688448 0.055307 -0.039193 0.0167766 0.014743 -0.00926237 0.00932649 0.0255316 -0.0273188 0.00373403 0.00298383 0.00409416 -0.002109 -0.00262831 -0.00781857 -0.00137669 0.00851333 0.0602591 0.0070922 0.00107557 -0.00836452 0.0195262 -0.00177596 0.0368928 0.0225318 0.0278925 -0.0256475 0.0186298 0.0165396 0.0201041 -0.000932374 -0.0190565 -0.0213385 -0.0252725 -0.00862479 -0.0439507 -0.0250832 0.0460276 0.0115276 -0.036573 -0.0376645 -0.0419991 -0.0350593 0.0108406 0.026002 -0.0133862 0.0298837 0.0100139 -0.019772 -0.0165495 -0.0155318 -0.00477155 0.00479427
internal_weight=16624 10611 6013 8487 2124 3406 4468 2607 1617 4019 507 1435 2570 1481 1759 1898 754 1971 1924 1720 1366 2095 1949 1305 354 364 327 944 150 251 1089 1698 863 450 137 1272 960 1117 313 137 848 440 249 1168 504 1196 180 954 931 753 277 476 858 129 454 304 204 142 408 358 231 146
internal_count=16624 10611 6013 8487 2124 3406 4468 2607 1617 4019 507 1435 2570 1481 1759 1898 754 1971 1924 1720 1366 2095 1949 1305 354 364 327 944 150 251 1089 1698 863 450 137 1272 960 1117 313 137 848 440 249 1168 504 1196 180 954 931 753 277 476 858 129 454 304 204 142 408 358 231 146
cat_boundaries=0 1 3
cat_threshold=876626961 168312835 1
is_linear=0
shrinkage=0.1


Tree=12
num_leaves=63
num_cat=4
split_feature=26 26 26 26 26 26 26 19 19 26 10 34 35 0 35 36 26 35 35 27 35 36 35 36 35 35 13 10 35 29 27 0 35 0 35 16 27 35 35 26 36 35 27 26 36 35 35 34 36 40 35 27 34 25 27 36 6 40 27 27 17 11
split_gain=428.692 110.017 69.5289 21.7185 15.9797 11.812 4.21624 3.33825 3.00293 2.52281 2.06263 1.76537 1.69308 1.34745 2.40479 1.23873 1.18309 1.05792 1.00842 0.992752 0.969138 0.838068 0.801119 0.776458 0.697869 0.589459 0.58834 0.584565 1.20794 0.57578 0.5608 0.546219 0.526098 0.518622 0.837809 0.517353 0.515922 0.512639 0.505318 0.503719 0.478139 0.446411 0.438866 0.43758 0.434322 0.41307 0.405561 0.3832 0.480455 0.37941 0.36174 0.334256 0.330146 0.31299 0.456877 0.31067 0.305645 0.273212 0.262195 0.261526 0.253569 0.245397
threshold=59.875000000000007 134.12500000000003 34.125000000000007 89.875000000000014 243.62500000000003 22.875000000000004 44.875000000000007 1.0000000180025095e-35 1.5000000000000002 105.62500000000001 19.860000000000003 55.734169653524496 73.500000000000014 0 22.500000000000004 8.5000000000000018 27.583333333333339 85.500000000000014 33.500000000000007 13.638181696985873 13.500000000000002 29.500000000000004 23.500000000000004 17.500000000000004 7.5000000000000009 37.500000000000007 1 124.14500000000001 93.500000000000014 110.54000000000002 13.638181696985873 2 61.500000000000007 3 31.500000000000004 5.5000000000000009 9.2870878105033743 30.500000000000004 92.500000000000014 123.12500000000001 75.500000000000014 25.500000000000004 21.52808223936475 38.125000000000007 24.500000000000004 31.500000000000004 150.50000000000003 34.05465949820789 19.500000000000004 -0.6830127018922193 34.500000000000007 6.055300708194987 62.20922939068101 25.500000000000004 3.947573094108991 37.500000000000007 1.0000000180025095e-35 -0.6830127018922193 6.7019897542943863 6.4031242374328441 1.5000000000000002 2.4500000000000006
decision_type=2 2 2 2 2 2 2 2 2 2 2 2 2 1 2 2 2 2 2 2 2 2 2 2 2 2 1 2 2 2 2 1 2 1 2 2 2 2 2 2 2 2 2 2 2 2 2 2 2 2 2 2 2 2 2 2 2 2 2 2 2 2
left_child=2 3 5 7 8 11 29 12 23 20 22 15 13 14 -2 -1 46 33 -15 58 -5 51 -6 -3 -11 57 32 45 -29 43 -22 41 -25 34 59 -32 52 -12 -13 42 47 -23 -26 -4 -36 -17 56 48 -18 -49 -28 -9 -19 -42 -55 -38 -7 -10 -14 -8 -41 -21
right_child=1 4 6 9 10 16 17 21 25 24 37 38 19 18 -16 27 40 36 -20 61 30 31 -24 26 39 -27 50 28 -30 -31 35 -33 -34 -35 44 -37 55 -39 -40 60 53 -43 -44 -45 -46 -47 -48 49 -50 -51 -52 -53 -54 54 -56 -57 -58 -59 -60 -61 -62 -63
leaf_value=-0.028445115422317448 0.0050695047109241935 0.027853150135379728 -0.017351972534780713 0.016484280310320454 0.059543884575711518 -0.025289501743579003 -0.0033251246353310573 0.0070442752751070578 0.031426482308994641 0.022582562615474065 0.043398044726357388 -0.02366037355469806 0.00057660144741336237 0.016384040881391861 -0.0052953550528646509 -0.039048387810883933 -0.019270504011905623 -0.0094391313580980095 0.0047278255073522615 -0.0071940432526142462 0.011537880510877585 0.01066091321404591 0.048183134521346496 0.034221786007566278 0.01577915659029358 0.028673586199459224 0.020590583171695473 -0.032129437479326221 -0.041571243864753318 -0.0024590900613237986 -0.0029039165594440422 0.0075140736841058904 0.020171512791088652 -0.00034056025529985207 -0.0040440440080565165 0.0083591361318718152 -0.0059261556182588849 0.028611841153454137 -0.03171954005675142 0.020885696957508724 -0.01721202384653225 0.0022093278123359312 0.0091257271237505638 -0.01261076010370921 -0.0094083497969317548 -0.048807687560717267 -0.030124104566990384 -0.022901845682751051 -0.034487242741244178 -0.015946117529104391 0.012116677110180865 0.011693887994587886 -0.0053500101933761342 -0.02128936859529193 -0.028853106666586283 -0.017335707897080051 -0.018950112698378391 0.037270526505898738 -0.0035475119487880786 0.0020448775296218447 0.015301410040507717 -0.016254700620558261
leaf_weight=148 477 294 294 324 172 941 268 286 175 209 198 118 357 83 420 150 69 404 657 80 1007 69 165 52 892 223 149 301 300 45 47 538 69 316 249 287 34 36 396 299 79 594 117 655 392 107 188 109 34 369 85 355 397 204 161 92 100 344 270 136 134 50
leaf_count=148 477 294 294 324 172 941 268 286 175 209 198 118 357 83 420 150 69 404 657 80 1007 69 165 52 892 223 149 301 300 45 47 538 69 316 249 287 34 36 396 299 79 594 117 655 392 107 188 109 34 369 85 355 397 204 161 92 100 344 270 136 134 50
internal_value=-0.000108608 0.0137427 -0.0187844 0.00825925 0.0348343 -0.02804 -0.00813602 0.00351314 0.0290125 0.0143193 0.0489412 -0.0348653 0.00104985 0.00285778 0.000213523 -0.0373604 -0.0234239 -0.00576931 0.00597492 -0.00285839 0.011558 0.0067123 0.0541405 0.0239586 0.0170953 0.0333947 0.020664 -0.0388633 -0.0369037 -0.0135725 0.0103564 0.00514646 0.0264407 -0.00398984 -0.00504053 0.00677028 -0.00837477 0.0412547 -0.0299189 0.0162848 -0.0208487 0.00305759 0.0150174 -0.0140963 -0.0073341 -0.043285 -0.0255529 -0.0188578 -0.0245768 -0.0175768 0.0175771 0.00963354 -0.00742164 -0.0234056 -0.0246954 -0.0143278 -0.0246993 0.0353642 -0.00120215 -0.00151682 0.0191968 -0.0107764
internal_weight=16570 9514 7056 7552 1962 3774 3282 4236 1391 3316 571 1520 2394 1637 897 1006 2254 2288 740 757 1665 1842 337 649 1651 742 355 858 601 994 1341 1201 121 1361 1045 334 927 234 514 1442 1025 663 1009 949 641 257 1229 581 103 478 234 641 801 444 365 126 1041 519 627 404 433 130
internal_count=16570 9514 7056 7552 1962 3774 3282 4236 1391 3316 571 1520 2394 1637 897 1006 2254 2288 740 757 1665 1842 337 649 1651 742 355 858 601 994 1341 1201 121 1361 1045 334 927 234 514 1442 1025 663 1009 949 641 257 1229 581 103 478 234 641 801 444 365 126 1041 519 627 404 433 130
cat_boundaries=0 2 3 5 7
cat_threshold=168312835 1 4 17 134 168296578 1
is_linear=0
shrinkage=0.1


Tree=13
num_leaves=63
num_cat=5
split_feature=26 26 26 26 26 26 26 26 10 26 26 26 35 35 35 27 35 0 35 1 1 36 10 35 35 27 35 35 6 27 35 33 35 36 35 35 24 27 16 6 34 0 36 27 33 35 36 34 16 41 33 27 35 27 36 24 36 35 35 27 2 27
split_gain=357.177 104.977 32.4519 24.9849 15.1798 7.71231 3.78497 3.27149 2.65704 2.58322 2.3535 1.28594 1.05439 0.959801 0.914796 0.978006 0.859639 0.809295 0.9948 0.792404 0.768443 0.627658 0.74758 0.771524 0.623494 0.61562 0.589712 0.578489 0.558632 0.686659 0.546913 0.58135 0.724667 0.534135 0.524559 0.50275 0.49716 0.460458 0.456059 0.453395 0.440994 0.422173 0.420545 0.417208 0.394916 0.371623 0.367819 0.357803 0.344985 0.344598 0.334386 0.314567 0.311571 0.294917 0.290757 0.28989 0.27964 0.268349 0.264165 0.2551 0.253966 0.248927
threshold=51.375000000000007 128.12500000000003 30.125000000000004 79.375000000000014 222.37500000000003 19.875000000000004 98.291666666666671 40.291666666666679 19.860000000000003 62.875000000000007 165.87500000000003 24.583333333333339 43.500000000000007 6.5000000000000009 70.500000000000014 9.3963642836378831 19.500000000000004 0 28.500000000000004 1 2 4.5000000000000009 131.03500000000005 78.500000000000014 158.50000000000003 12.579745625409098 35.500000000000007 31.500000000000004 1.0000000180025095e-35 5.4772255750516674 25.500000000000004 110.77389486260455 83.500000000000014 24.500000000000004 7.5000000000000009 74.500000000000014 31.500000000000004 24.802553404396594 6.5000000000000009 1.0000000180025095e-35 57.165845280764643 3 129.50000000000003 10.904891868637071 69.807123655913998 60.500000000000007 43.500000000000007 91.487455197132633 51.500000000000007 0.6830127018922193 38.731929510155325 18.822637048023022 85.500000000000014 11.441882129556602 7.5000000000000009 25.500000000000004 57.500000000000007 4.5000000000000009 134.50000000000003 18.192260223015342 4 5.6199051000291265
decision_type=2 2 2 2 2 2 2 2 2 2 2 2 2 2 2 2 2 1 2 1 1 2 2 2 2 2 2 2 2 2 2 2 2 2 2 2 2 2 2 2 2 1 2 2 2 2 2 2 2 2 2 2 2 2 2 2 2 2 2 2 1 2
left_child=2 3 5 9 10 21 12 28 26 24 30 55 39 -10 17 60 47 18 -11 54 52 -1 27 -24 34 -19 49 -23 29 -4 -3 51 -33 -9 -2 -31 45 -21 -37 44 46 -36 56 -22 -5 -13 -35 -8 61 -6 -47 -32 -14 -49 -18 -7 -42 -12 -25 -41 -16 -30
right_child=1 4 7 6 8 11 16 33 13 14 57 36 20 -15 15 -17 19 25 -20 37 43 22 23 58 -26 -27 -28 -29 48 35 31 32 -34 40 41 38 -38 -39 -40 59 42 -43 -44 -45 -46 50 -48 53 -50 -51 -52 -53 -54 -55 -56 -57 -58 -59 -60 -61 -62 -63
leaf_value=-0.022715563767900071 0.0053118760070584 0.02257043248939463 -0.014924086410655108 0.0078252326741281436 0.048386373678169683 -0.02554550850920341 0.014758931683952646 -0.005384225462566658 0.044337895639941227 0.0042778554754293206 0.036773375993551211 -0.016361694595229532 0.0091340381979174209 0.033207138485964495 -0.00026547148716215614 -0.0053979699772630889 0.020652710875230178 0.0050422521232576407 -0.0027981447916244867 0.0096154124590102589 0.0051050393232857927 -0.03467125244000379 -0.026342043195353455 -0.032488697103442668 -0.015757926429311436 0.013499738260790116 0.04031971969331305 -0.044832031890354326 -0.0098430199231105773 -0.012599473746776509 0.017191460618114735 0.025788871844609582 0.01266228383354528 -0.0097083559152112454 -0.0046737285511711151 -0.033300601512841553 -0.027555520914670992 0.0003699500712173176 -0.020669861596265656 0.012799622708585409 4.5083468449452232e-05 -0.0014617361430766113 -0.018000521104444157 -0.0016999055578905558 0.011699125490046799 -0.027876854262181689 -0.015654626309678153 0.016240412727385373 -0.016850853128538981 0.060866541206836704 -0.020879960029700342 0.008749398606902872 0.0047477044155276689 0.023002776544730087 0.013737280399821937 -0.031912481814622883 -0.0073224167609351673 0.027488095671219206 -0.038397059173553023 0.023118981505360674 0.0039684242534005192 0.0026725667949405413
leaf_weight=59 82 406 651 706 176 773 416 473 116 513 42 188 492 353 277 266 69 607 323 374 185 186 188 375 35 100 95 112 32 50 90 119 70 358 717 45 126 63 108 112 61 1012 32 174 433 83 153 153 30 49 1030 94 247 137 916 99 330 636 153 33 285 30
leaf_count=59 82 406 651 706 176 773 416 473 116 513 42 188 492 353 277 266 69 607 323 374 185 186 188 375 35 100 95 112 32 50 90 119 70 358 717 45 126 63 108 112 61 1012 32 174 433 83 153 153 30 49 1030 94 247 137 916 99 330 636 153 33 285 30
internal_value=1.73184e-05 0.0105813 -0.0202287 0.00561767 0.0298567 -0.0265177 0.0107907 -0.0112088 0.0410396 8.39477e-05 0.0237768 -0.0232279 0.00804651 0.0360486 0.00226742 -0.000413824 0.0138573 0.00370556 0.00152564 0.012419 0.00576212 -0.0335382 -0.0341449 -0.0322281 -0.00272021 0.00616875 0.0482193 -0.0386272 -0.0157574 -0.016559 0.0199685 0.0170837 0.0210194 -0.00814146 -0.00245968 -0.021703 -0.0213311 0.00810147 -0.0245769 0.00999398 -0.00953054 -0.00283112 -0.00711071 0.00176231 0.00930689 -0.0207076 -0.0115158 0.0167325 -0.00821878 0.0513616 -0.0214263 0.0129493 0.00757402 0.0195031 0.0140992 -0.0263041 -0.00617583 0.0281166 -0.0342701 0.0152904 0.00195062 -0.0038408
internal_weight=16698 10973 5725 8727 2246 3372 4510 2353 789 4217 1457 2299 2382 469 2371 828 2128 1543 836 1422 1098 1073 1014 716 1846 707 320 298 946 854 779 373 189 1407 1811 203 1427 437 153 1284 934 1729 423 359 1139 1301 511 706 92 225 1113 184 739 290 985 872 391 678 528 145 562 62
internal_count=16698 10973 5725 8727 2246 3372 4510 2353 789 4217 1457 2299 2382 469 2371 828 2128 1543 836 1422 1098 1073 1014 716 1846 707 320 298 946 854 779 373 189 1407 1811 203 1427 437 153 1284 934 1729 423 359 1139 1301 511 706 92 225 1113 184 739 290 985 872 391 678 528 145 562 62
cat_boundaries=0 2 3 4 6 7
cat_threshold=168312835 7 876610577 272647300 168296578 1 139777
is_linear=0
shrinkage=0.1


Tree=14
num_leaves=63
num_cat=5
split_feature=26 26 26 26 26 26 26 0 26 26 36 26 26 35 2 35 0 36 35 43 16 35 33 35 27 35 36 27 1 0 35 35 35 35 10 35 35 24 27 27 26 35 36 34 35 36 35 11 35 27 35 35 34 36 35 40 36 17 5 27 35 33
split_gain=290.378 73.9417 51.5077 16.1865 8.66327 8.50547 2.84271 2.46419 2.10878 1.55422 1.54053 1.19631 1.10455 1.00627 0.839718 0.810247 0.882359 0.773681 0.734964 0.681601 0.663944 0.635806 0.780617 0.952152 0.577918 0.55353 0.548472 0.534909 0.528441 0.50153 0.666727 0.482294 0.473348 0.470174 0.46336 0.772793 0.607615 0.442079 0.439625 0.394626 0.390393 0.389054 0.377784 0.345398 0.331534 0.311809 0.296951 0.293459 0.29117 0.284938 0.283525 0.269664 0.266781 0.304872 0.264451 0.261869 0.255599 0.25338 0.249428 0.246956 0.245493 0.499364
threshold=61.291666666666679 146.37500000000003 35.125000000000007 91.875000000000014 20.875000000000004 259.12500000000006 44.875000000000007 0 113.62500000000001 27.875000000000004 22.500000000000004 446.25000000000006 204.12500000000003 43.500000000000007 1 20.500000000000004 2 29.500000000000004 91.500000000000014 0.4647231720437684 6.5000000000000009 24.500000000000004 138.77658303464759 66.500000000000014 12.70662461630849 4.5000000000000009 3.5000000000000004 9.9791449199484799 3 4 31.500000000000004 101.50000000000001 91.500000000000014 57.500000000000007 131.03500000000005 59.500000000000007 17.500000000000004 26.500000000000004 3.304037933599826 8.2209083034256949 23.375000000000004 134.50000000000003 33.500000000000007 62.20922939068101 4.5000000000000009 4.5000000000000009 2.5000000000000004 1.1500000000000001 62.500000000000007 29.754549363606714 6.5000000000000009 37.500000000000007 101.72491039426525 2.5000000000000004 47.500000000000007 -0.6830127018922193 41.500000000000007 1.0000000180025095e-35 30.500000000000004 8.6938675704966482 132.50000000000003 65.327508960573496
decision_type=2 2 2 2 2 2 2 1 2 2 2 2 2 2 1 2 1 2 2 2 2 2 2 2 2 2 2 2 1 1 2 2 2 2 2 2 2 2 2 2 2 2 2 2 2 2 2 2 2 2 2 2 2 2 2 2 2 2 2 2 2 2
left_child=2 3 4 7 34 12 42 10 17 20 26 -7 44 19 59 -12 -17 52 29 58 31 46 24 -24 -23 -14 -2 43 51 48 55 -6 -16 38 36 -36 -1 -11 -22 -39 -35 -37 -4 -20 -3 -32 -10 -48 -8 -46 -13 -19 53 -5 -27 -31 -29 -43 -9 -15 61 -44
right_child=1 5 6 8 9 11 18 13 21 37 15 50 25 14 32 16 -18 28 27 -21 33 22 23 -25 -26 54 -28 56 -30 30 45 -33 -34 40 35 41 -38 39 -40 -41 -42 57 60 -45 49 -47 47 -49 -50 -51 -52 -53 -54 -55 -56 -57 -58 -59 -60 -61 -62 -63
leaf_value=-0.027291856961111069 0.010535011087389043 0.030988274032578752 -0.0075816858050668434 0.018392748805457975 -0.023302810572619952 0.038399846989182786 0.0052380724779680721 0.008715916551161166 0.024807883363503678 -0.011432705016866808 0.0050367913603732162 0.060741334802964154 0.037634277484706935 0.0022717176354109781 0.0069518157070200433 -0.010076595284435691 -0.0013201441807273078 0.013079051835258017 -0.0078400097756280689 0.014135478032616581 -0.020024151020170598 0.014900320449469649 0.025310215916273728 0.013737548565239639 0.0076341892421520827 0.028337457375635818 0.0031552503278859945 -0.0057866918269012663 0.0048205943896235635 -0.0036987389600445526 0.0039952933858854308 -0.039316085423972164 0.0017947599816413478 -0.024410164578727814 -0.018360551509172901 -0.028028485853168073 -0.037088939839417176 -0.016935821466246417 -0.0089186036683475741 -0.02816694764154298 -0.020463203412505584 -0.029128556394128393 -0.014943647119251634 -0.0035343563456730672 0.022909094108728129 -0.0059793200314128513 0.023212086753203319 0.016264924147207576 -0.0011978181511254887 0.015837510729183216 0.046227362960577015 0.0087706547641350965 0.016297516496452086 0.011222079933007912 0.018002502718830811 0.0012526840904622145 -0.016547861017493736 -0.037920306822688314 0.0049923847814765561 -0.0024047726871447078 -0.014026897088295283 -0.0071748025961284774
leaf_weight=121 119 50 314 66 55 357 90 388 64 154 165 33 73 305 754 123 896 245 349 163 88 203 105 237 246 533 639 34 339 178 32 36 234 382 75 588 193 890 64 34 1045 92 132 405 453 774 77 473 308 77 99 391 162 827 33 264 71 96 346 178 296 230
leaf_count=121 119 50 314 66 55 357 90 388 64 154 165 33 73 305 754 123 896 245 349 163 88 203 105 237 246 533 639 34 339 178 32 36 234 382 75 588 193 890 64 34 1045 92 132 405 453 774 77 473 308 77 99 391 162 827 33 264 71 96 346 178 296 230
internal_value=9.65271e-05 0.0117054 -0.0147527 0.00754996 -0.0226211 0.0305329 -0.00589354 0.00346745 0.0126699 -0.0195427 0.000804933 0.0417043 0.026021 0.00562259 0.00403198 -0.00144433 -0.00249768 0.0105975 -0.00410959 0.00828627 -0.0214692 0.0156546 0.0137345 0.017354 0.0109451 0.0289519 0.00432617 -0.00648015 0.0085479 -0.00286928 -0.00383816 -0.0299962 0.00567607 -0.0209592 -0.0298596 -0.028511 -0.0334123 -0.016541 -0.015437 -0.0173791 -0.0215361 -0.0294672 -0.0104821 -0.00553504 0.0227478 -0.00557885 0.0181018 0.0172779 0.000260486 0.0219135 0.0502853 0.0102868 0.0124817 0.011772 0.0277677 -0.000745176 -0.0131508 -0.0337948 0.00696986 0.000535812 -0.0118526 -0.010041
internal_weight=16843 9453 7390 7745 3913 1708 3477 4310 3435 2748 1942 489 1219 2368 1471 1184 1019 2030 2505 897 1670 1405 791 342 449 639 758 859 975 1646 1248 91 988 1579 1165 851 314 1078 152 924 1427 776 972 754 580 806 614 550 398 530 132 636 1055 893 566 442 105 188 734 483 658 362
internal_count=16843 9453 7390 7745 3913 1708 3477 4310 3435 2748 1942 489 1219 2368 1471 1184 1019 2030 2505 897 1670 1405 791 342 449 639 758 859 975 1646 1248 91 988 1579 1165 851 314 1078 152 924 1427 776 972 754 580 806 614 550 398 530 132 636 1055 893 566 442 105 188 734 483 658 362
cat_boundaries=0 2 3 5 6 8
cat_threshold=713581571 65 581 34078722 1 872416276 545268752 576
is_linear=0
shrinkage=0.1


Tree=15
num_leaves=63
num_cat=1
split_feature=26 26 26 26 26 26 26 0 26 26 36 26 35 35 37 36 10 36 35 27 36 40 36 34 27 27 35 26 34 36 36 33 35 35 27 5 35 35 36 40 16 33 35 36 27 27 35 16 40 42 27 34 36 5 27 27 33 43 40 11 40 29
split_gain=233.033 61.2569 36.0365 14.0574 8.05243 5.84349 2.88282 2.68246 1.33773 1.14576 1.14158 0.935503 0.860598 0.837038 1.13082 0.733035 0.612703 0.602828 0.567154 0.547477 0.525775 0.517483 0.471796 0.459157 0.454054 0.452973 0.428514 0.419965 0.407777 0.450737 0.403015 0.392811 0.409163 0.357148 0.377845 0.430806 0.34755 0.344958 0.329567 0.323447 0.323323 0.319821 0.514044 0.42752 0.365652 0.352405 0.313423 0.307573 0.307263 0.292434 0.289344 0.280227 0.319369 0.279464 0.275314 0.268299 0.257954 0.375661 0.257385 0.257175 0.20906 0.208606
threshold=59.375000000000007 140.29166666666671 31.875000000000004 93.291666666666671 259.12500000000006 20.375000000000004 44.125000000000007 0 204.12500000000003 114.37500000000001 14.500000000000002 24.875000000000004 5.5000000000000009 83.500000000000014 0.070000000000000021 40.500000000000007 19.860000000000003 31.500000000000004 70.500000000000014 6.6583281184794094 80.500000000000014 -0.6830127018922193 42.500000000000007 101.72491039426525 12.832251036613444 7.8049129826454022 65.500000000000014 15.375000000000002 34.05465949820789 5.5000000000000009 11.500000000000002 46.606630824372765 42.500000000000007 3.5000000000000004 24.802553404396594 5.5000000000000009 40.500000000000007 24.500000000000004 5.5000000000000009 -0.6830127018922193 58.500000000000007 65.327508960573496 133.50000000000003 72.500000000000014 6.3770421565696607 6.7019897542943863 5.5000000000000009 6.5000000000000009 -0.6830127018922193 -0.61559370248597534 9.4868329805051506 117.13037634408603 23.500000000000004 43.500000000000007 10.078855755160577 5.6199051000291265 59.021804062126655 0.5163939593874618 -0.6830127018922193 1.9500000000000002 -0.93301270189221908 135.19000000000003
decision_type=2 2 2 2 2 2 2 1 2 2 2 2 2 2 2 2 2 2 2 2 2 2 2 2 2 2 2 2 2 2 2 2 2 2 2 2 2 2 2 2 2 2 2 2 2 2 2 2 2 2 2 2 2 2 2 2 2 2 2 2 2 2
left_child=2 3 5 7 8 27 22 15 33 17 40 47 -6 14 -12 21 36 56 31 -15 28 60 -4 50 -19 59 -25 -1 29 -13 -27 32 -8 -3 -35 -36 -14 -26 -11 -33 58 43 -43 -24 -45 -44 -10 -7 -30 -23 -17 52 -40 -53 -41 -22 -5 -58 -9 -20 -2 -29
right_child=1 4 6 9 12 11 18 10 46 38 13 20 16 19 -16 23 -18 24 25 -21 55 49 41 26 37 30 -28 61 48 -31 -32 39 -34 34 35 -37 -38 -39 51 54 -42 42 45 44 -46 -47 -48 -49 -50 -51 -52 53 -54 -55 -56 -57 57 -59 -60 -61 -62 -63
leaf_value=-0.030692097426001586 0.0074802971266651466 0.028353860725959142 -0.0078168951421825877 0.0054775207471435099 0.048879926169619843 -0.028213615185123383 -0.0036287453909925093 0.00026860536619399987 0.032307256527599838 0.018613194416770163 -0.0012739488080875392 -0.008134676200736846 0.040202929344305326 -0.00011172948948907616 0.0045012074566818617 0.0034481363262596275 0.02856842461559508 0.0095668923371811706 -0.0015616662734673616 -0.0067153620099822293 -0.017915613399878901 0.017565204404495858 -0.011325322163856927 0.011501147038826164 0.01406271661467412 0.00098869571011164239 0.0037291260927775636 -0.026148392937230952 -0.016775785414319015 -0.021087980362966923 -0.011149637126666598 -0.0042114343294217963 -0.0117367351813683 0.020329095049240204 0.0067564176318298383 0.018020861607407575 0.030727903607865453 0.0032968038802238769 0.012672678657732375 -0.00037042416236488868 0.0015472074450403656 -0.0071747168699013335 -0.012125592298219669 -0.015271475740584984 -0.027593625012116558 -0.023551824995700053 0.025049882275362811 -0.020220131868506852 -0.012151034021792982 0.0083201364226664198 -0.00092475992754612968 0.01370120004959512 0.0054354334670481171 0.021409932103146009 0.0080826239408600311 -0.024497801208725342 0.010603828620649416 0.01493001724937118 0.0074737999698250585 -0.0056940727376954964 0.0030609782954405581 -0.019706362808614764
leaf_weight=247 162 47 402 69 67 58 355 59 83 135 970 34 241 217 520 443 107 541 187 297 674 36 162 113 33 31 192 806 228 168 222 223 75 512 51 112 70 250 210 370 229 237 175 82 38 33 524 789 455 690 229 762 89 53 42 77 691 297 312 793 320 71
leaf_count=247 162 47 402 69 67 58 355 59 83 135 970 34 241 217 520 443 107 541 187 297 674 36 162 113 33 31 192 806 228 168 222 223 75 512 51 112 70 250 210 370 229 237 175 82 38 33 524 789 455 690 229 762 89 53 42 77 691 297 312 793 320 71
internal_value=5.35479e-05 0.0100752 -0.013813 0.00627651 0.026646 -0.0207887 -0.00646699 0.00286931 0.0225883 0.0114871 0.00068599 -0.018065 0.0376955 -0.000457561 0.000743209 0.00544177 0.0357904 0.00991568 -0.00443083 -0.00393308 -0.0166371 0.00711414 -0.0106039 0.00342447 0.00786774 -0.00589094 0.00663677 -0.0267842 -0.0149335 -0.0189585 -0.00966429 -0.00273646 -0.00506688 0.0196093 0.0189593 0.0145591 0.0381756 0.00459729 0.0138437 -0.00115289 0.00451127 -0.0121321 -0.0104091 -0.0148046 -0.0193693 -0.0140424 0.0260937 -0.0208001 -0.0137171 0.0088021 0.00195881 0.0132496 0.0105437 0.0142281 0.000508778 -0.0186222 0.0115032 0.0119181 0.00633176 -0.00490794 0.00455872 -0.0256499
internal_weight=16767 9733 7034 7919 1814 3607 3427 4789 1329 3130 2604 2483 485 2004 1490 2185 418 1881 2298 514 1636 1208 1129 977 824 1233 305 1124 885 202 253 1065 430 722 675 163 311 283 1249 635 600 727 445 282 120 208 607 847 683 726 672 1114 299 815 412 751 1057 988 371 980 482 877
internal_count=16767 9733 7034 7919 1814 3607 3427 4789 1329 3130 2604 2483 485 2004 1490 2185 418 1881 2298 514 1636 1208 1129 977 824 1233 305 1124 885 202 253 1065 430 722 675 163 311 283 1249 635 600 727 445 282 120 208 607 847 683 726 672 1114 299 815 412 751 1057 988 371 980 482 877
cat_boundaries=0 2
cat_threshold=337776912 390
is_linear=0
shrinkage=0.1


Tree=16
num_leaves=63
num_cat=2
split_feature=26 26 26 26 26 26 0 26 26 36 26 35 27 35 36 35 6 26 35 35 35 35 35 33 33 34 29 36 35 35 7 27 27 40 36 34 36 36 33 27 10 35 29 35 24 26 36 27 27 35 40 35 34 1 26 36 19 35 16 35 35 17
split_gain=188.276 45.0614 35.9259 10.6876 5.75773 4.4102 1.73565 1.71619 1.37477 1.07724 1.03721 0.842898 0.626734 0.601438 0.582974 0.558069 0.541106 0.520685 0.488922 0.486745 0.483995 0.472879 0.47118 0.688075 0.469291 0.466825 0.447859 0.438855 0.410428 0.400808 0.385547 0.382925 0.379439 0.374779 0.359512 0.393508 0.441391 0.358899 0.347474 0.335214 0.334788 0.345613 0.332356 0.309884 0.307344 0.335878 0.30158 0.297949 0.273838 0.266763 0.263931 0.249666 0.246743 0.241471 0.236835 0.236004 0.230362 0.227331 0.220805 0.219361 0.21077 0.205405
threshold=62.875000000000007 160.87500000000003 36.125000000000007 95.291666666666671 20.875000000000004 282.62500000000006 0 50.875000000000007 122.12500000000001 9.5000000000000018 27.875000000000004 4.5000000000000009 15.020818821766383 155.50000000000003 43.500000000000007 121.50000000000001 1.0000000180025095e-35 15.375000000000002 80.500000000000014 4.5000000000000009 20.500000000000004 154.50000000000003 37.500000000000007 110.77389486260455 38.731929510155325 34.05465949820789 110.54000000000002 41.500000000000007 78.500000000000014 132.50000000000003 1.0000000180025095e-35 24.802553404396594 37.006756071415026 -0.6830127018922193 4.5000000000000009 55.734169653524496 26.500000000000004 66.500000000000014 138.77658303464759 5.6199051000291265 52.015000000000008 65.500000000000014 131.03500000000005 45.500000000000007 32.500000000000007 31.875000000000004 6.5000000000000009 14.056433876817197 5.5602757725374365 3.5000000000000004 -0.6830127018922193 113.50000000000001 55.734169653524496 1 518.87500000000011 87.500000000000014 1.5000000000000002 80.500000000000014 58.500000000000007 27.500000000000004 47.500000000000007 1.5000000000000002
decision_type=2 2 2 2 2 2 1 2 2 2 2 2 2 2 2 2 2 2 2 2 2 2 2 2 2 2 2 2 2 2 2 2 2 2 2 2 2 2 2 2 2 2 2 2 2 2 2 2 2 2 2 2 2 1 2 2 2 2 2 2 2 2
left_child=2 3 4 6 17 11 14 15 16 47 18 32 30 44 33 26 31 -1 39 -7 -14 34 49 60 51 -26 46 38 -25 42 -11 53 -3 -2 -9 36 -36 -37 56 -6 41 -16 52 -33 45 -12 -4 -8 -17 -10 -48 -20 -19 -5 -21 -42 -13 -44 -18 -35 -24 -51
right_child=1 5 7 8 10 19 9 21 22 12 13 27 20 -15 40 48 58 29 24 54 -22 -23 23 28 25 -27 -28 -29 -30 -31 -32 43 -34 59 35 37 -38 -39 -40 -41 55 -43 57 -45 -46 -47 50 -49 -50 61 -52 -53 -54 -55 -56 -57 -58 -59 -60 -61 -62 -63
leaf_value=-0.028342694437952117 0.0051436666862688376 0.025619912689382379 7.4253456037053303e-05 0.010333348315820994 -0.015266564545036766 0.046310524388057432 0.0050482611361252518 0.0040655555859537736 0.021752663923130522 0.0011803577942709111 -0.01250188499262439 0.015819519523227975 0.0072697085368313959 -0.02330389487203853 0.0098832489586331788 -0.007772356496264992 0.016532580500244552 -0.023313048366655757 -0.02088000829562657 0.032333012628499594 -0.0053890941985624118 -0.011816582850252208 0.0084765001328196386 0.017995184130610572 -0.023913954191397285 -0.016696451734936522 0.005291228172763323 0.016911771028529411 0.0098490879232544584 -0.027285380533880951 0.0070758065594048476 0.0089926741638242502 0.039436076618731025 0.011992539772617569 -0.0031592122335115237 -0.00030584591163907056 -0.010576102554038805 -0.0035137164233599253 0.02608238839290359 -0.0042351374642983558 0.003252607862623116 0.0035398120107766316 -0.0081208885463914179 -0.0024458554920406559 -0.015177652824052713 -0.0068419375019218021 -0.0085459550259087882 0.011613303726392516 -0.012478627955000959 0.016460912008656629 -0.0049607684755720565 -0.030725823887964576 -0.017865313207807623 0.0071341013443519414 0.0429782192058423 -0.0025106206758971177 0.021971419872716072 -0.01998413504150353 0.010149720796346288 0.0077554303772413976 0.00033881628165814887 0.012490675984630634
leaf_weight=235 391 65 84 1131 539 40 329 88 68 1869 602 85 34 57 152 514 145 576 132 320 224 51 79 135 106 886 38 192 123 180 117 42 39 190 295 824 110 604 219 30 413 200 32 52 352 132 314 88 168 359 614 40 120 631 33 85 463 37 98 377 53 240
leaf_count=235 391 65 84 1131 539 40 329 88 68 1869 602 85 34 57 152 514 145 576 132 320 224 51 79 135 106 886 38 192 123 180 117 42 39 190 295 824 110 604 219 30 413 200 32 52 352 132 314 88 168 359 614 40 120 631 33 85 463 37 98 377 53 240
internal_value=-0.000106218 0.00966742 -0.0115434 0.00658733 -0.0180446 0.0257821 0.0034399 -0.0044215 0.0110417 0.00179028 -0.0156199 0.0223925 0.000928333 -0.01325 0.00582339 -0.00671773 0.00955067 -0.0239359 -0.0171745 0.0348703 -0.00369925 -0.00240234 0.0139907 0.0111638 -0.0183737 -0.017491 -0.00526183 0.0214139 0.0141646 -0.0228112 0.00153106 0.00895952 0.0311272 0.00754791 -0.00214639 -0.00244667 -0.00519476 -0.00166419 0.0225174 -0.0146934 0.0039416 0.00629926 -0.0217242 0.00270584 -0.0127013 -0.0114947 -0.00566292 0.00645816 -0.00894825 0.0156244 -0.00618175 -0.0233341 -0.0224008 0.00929142 0.0334468 0.00226586 0.0210478 -0.0146769 0.0140106 0.00919389 0.00523621 0.0148936
internal_weight=16841 9081 7760 7625 4056 1456 4469 3704 3156 2661 2876 1063 2244 1143 1808 1732 2099 1180 1733 393 258 1972 1057 390 1164 992 1050 959 258 945 1986 1856 104 958 1921 1833 405 1428 767 569 850 352 765 94 1086 734 1012 417 682 667 928 172 696 1762 353 498 548 69 243 567 132 599
internal_count=16841 9081 7760 7625 4056 1456 4469 3704 3156 2661 2876 1063 2244 1143 1808 1732 2099 1180 1733 393 258 1972 1057 390 1164 992 1050 959 258 945 1986 1856 104 958 1921 1833 405 1428 767 569 850 352 765 94 1086 734 1012 417 682 667 928 172 696 1762 353 498 548 69 243 567 132 599
cat_boundaries=0 2 3
cat_threshold=337776912 260 872432660
is_linear=0
shrinkage=0.1


Tree=17
num_leaves=63
num_cat=6
split_feature=26 26 26 26 10 26 26 26 19 35 0 35 16 27 35 35 36 1 1 26 37 43 36 43 26 0 16 27 36 0 36 24 27 35 27 5 10 35 35 36 36 6 41 16 27 10 35 23 35 35 41 27 35 10 27 5 43 0 40 24 27 24
split_gain=152.743 40.1305 22.0694 9.34192 5.39732 3.27244 2.22036 1.8543 1.79977 0.995835 0.937532 0.955894 0.709375 0.662581 0.659404 0.634815 0.524807 0.547391 0.524725 0.517369 0.482993 0.466418 0.440704 0.422727 0.41769 0.415469 0.412725 0.404456 0.367461 0.400249 0.360715 0.356507 0.399104 0.354883 0.350579 0.314739 0.322854 0.469925 0.386088 0.308148 0.302618 0.299939 0.317176 0.307272 0.285812 0.272742 0.261584 0.232273 0.231911 0.23075 0.22771 0.221475 0.217601 0.221723 0.213032 0.208544 0.200363 0.200125 0.199269 0.187242 0.179087 0.173219
